~o
<STREAMINFO> 1 39
<VECSIZE> 39<NULLD><MFCC_D_A_0><DIAGC>
~s "silst"
<MEAN> 39
 -1.352574e+01 -5.219975e+00 -3.831241e+00 -4.589614e+00 -1.909613e+00 -4.194303e+00 -9.496918e-01 -3.110029e+00 -1.336708e+00 -2.768401e+00 -7.011764e-01 -1.578883e+00 4.884845e+01 -1.083726e-02 2.519144e-03 -5.716756e-03 4.924547e-03 3.943810e-03 2.928290e-03 5.692338e-03 3.119202e-03 8.135335e-03 8.543266e-03 1.037478e-02 6.939614e-03 -2.500130e-02 3.611104e-03 5.655416e-03 9.844059e-03 1.006606e-02 1.385820e-02 1.824794e-02 1.692740e-02 2.014117e-02 1.916353e-02 1.787791e-02 1.369233e-02 8.731006e-03 6.102669e-03
<VARIANCE> 39
 2.457993e+01 1.873475e+01 2.122997e+01 1.764456e+01 2.781678e+01 1.925355e+01 2.676716e+01 1.850397e+01 2.427223e+01 1.838810e+01 1.595840e+01 1.446830e+01 1.733677e+02 1.092237e-01 2.212131e-01 3.804243e-01 5.424534e-01 7.314004e-01 8.902402e-01 1.024871e+00 1.158070e+00 1.196144e+00 1.183682e+00 1.123709e+00 1.053340e+00 4.564494e-02 2.157083e-02 4.455775e-02 7.768203e-02 1.122738e-01 1.508266e-01 1.854578e-01 2.142413e-01 2.403119e-01 2.478235e-01 2.460052e-01 2.333881e-01 2.209752e-01 7.885679e-03
<GCONST> 7.595563e+01
~h "DE"
<BEGINHMM>
<NUMSTATES> 6
<STATE> 2
<MEAN> 39
 -4.454598e+00 4.106639e-01 3.388548e-01 -1.939208e+00 -2.071704e+00 -6.562966e+00 -6.385023e+00 -6.049194e+00 8.255581e-01 -1.341084e+00 -1.750561e+00 -5.138742e+00 6.150328e+01 -2.904937e-01 1.884350e-01 3.682596e-01 3.013855e-01 -1.742044e-01 -5.888468e-01 1.169693e-01 2.263087e-01 9.598400e-03 -2.727172e-01 2.539079e-02 2.885700e-01 2.095174e-01 9.773436e-02 -4.316297e-01 -2.531452e-02 -3.152736e-01 -5.569972e-01 -2.216585e-01 -6.794865e-02 2.801913e-01 1.383609e-01 -4.024088e-02 1.126417e-01 1.084097e-01 5.105957e-01
<VARIANCE> 39
 3.525921e+01 4.016666e+01 3.529035e+01 3.068190e+01 2.829652e+01 3.671425e+01 4.266555e+01 3.976167e+01 4.807510e+01 4.379221e+01 3.407062e+01 2.567101e+01 6.645912e+01 1.452668e+00 2.659964e+00 1.879718e+00 2.562732e+00 3.590112e+00 3.329904e+00 2.889613e+00 2.960058e+00 2.807616e+00 2.675023e+00 2.544742e+00 2.367646e+00 2.963811e+00 2.572355e-01 3.961252e-01 3.561575e-01 4.989276e-01 5.413281e-01 5.799460e-01 4.993464e-01 5.799825e-01 5.275215e-01 5.383437e-01 5.296809e-01 4.325908e-01 4.479165e-01
<GCONST> 1.214305e+02
<STATE> 3
<MEAN> 39
 -4.338534e+00 -5.144966e+00 2.879098e+00 -6.574547e+00 -1.268795e+01 -1.437210e+01 -7.880179e+00 -1.479689e+00 1.734462e+00 -2.711224e+00 -1.195998e-01 -2.030802e+00 7.214619e+01 8.751227e-02 -1.650118e+00 3.729934e-01 -1.517952e+00 -2.223421e+00 -7.865030e-01 5.358945e-01 1.621715e+00 2.611665e-01 -1.763993e-01 4.308780e-01 2.517559e-01 1.893867e+00 3.361834e-02 1.328014e-01 -1.335973e-01 6.502873e-02 5.141821e-01 5.394732e-01 2.156259e-01 -9.782769e-02 -1.861628e-01 7.439163e-03 -1.627452e-01 -3.154349e-01 -3.936293e-01
<VARIANCE> 39
 3.729316e+01 6.186197e+01 4.582471e+01 6.518693e+01 6.482792e+01 5.496182e+01 5.812448e+01 5.418433e+01 6.440496e+01 5.245756e+01 3.427514e+01 3.688172e+01 5.784452e+01 1.040534e+00 1.916364e+00 2.548851e+00 2.534055e+00 4.130072e+00 3.410886e+00 4.173221e+00 3.929613e+00 3.449648e+00 3.481098e+00 3.597781e+00 2.942289e+00 1.758421e+00 1.435553e-01 3.138524e-01 3.428505e-01 5.188364e-01 6.552475e-01 4.342904e-01 5.314330e-01 6.061429e-01 5.861619e-01 5.840085e-01 5.139201e-01 4.631499e-01 3.215917e-01
<GCONST> 1.255312e+02
<STATE> 4
<MEAN> 39
 -4.278375e+00 -8.796368e+00 5.484401e-01 -9.536766e+00 -1.242471e+01 -1.186785e+01 -5.307151e+00 8.686744e-02 -4.559258e-01 -4.498467e+00 -1.968686e+00 -4.165095e+00 7.183033e+01 1.221538e-01 1.024694e-01 -5.238133e-02 2.563898e-01 3.114626e-01 2.891242e-01 8.441936e-02 -4.128314e-02 -1.701409e-01 -1.322990e-01 -7.191762e-02 -8.316190e-02 -3.711216e-01 -2.988059e-03 2.363328e-01 8.461870e-03 1.969686e-01 1.953825e-01 4.976017e-02 -5.877237e-02 -1.912872e-01 -3.654939e-02 6.558760e-02 3.765376e-03 3.221368e-02 -2.538812e-01
<VARIANCE> 39
 3.726677e+01 5.099831e+01 6.667265e+01 5.945198e+01 4.908336e+01 5.572089e+01 7.168750e+01 6.401727e+01 7.796857e+01 5.101682e+01 4.636311e+01 3.010467e+01 6.218511e+01 5.607621e-01 1.357829e+00 1.473497e+00 1.759362e+00 2.145350e+00 1.757174e+00 2.344099e+00 2.526408e+00 2.103514e+00 1.937190e+00 1.819019e+00 1.658167e+00 1.113694e+00 1.115610e-01 2.521552e-01 2.528686e-01 3.699762e-01 4.409500e-01 3.208015e-01 4.612523e-01 5.423689e-01 4.018046e-01 3.551863e-01 3.693749e-01 3.167040e-01 2.629535e-01
<GCONST> 1.152095e+02
<STATE> 5
<MEAN> 39
 -7.402581e+00 -1.187375e+00 3.691807e+00 -1.680466e+00 -6.177999e+00 -6.141533e+00 -3.357545e+00 -1.735436e+00 5.754275e-01 -2.083300e+00 5.633406e-02 -2.103928e+00 6.565930e+01 -2.380038e-01 1.492519e-01 2.417951e-01 1.579154e-01 -6.453515e-03 9.692981e-03 2.652213e-01 -4.807364e-02 -1.944725e-01 9.709944e-02 6.856406e-02 1.571117e-01 -1.032596e-01 3.251988e-02 -1.200781e-01 1.108303e-02 -1.291426e-01 -1.657822e-01 -7.647497e-02 9.029595e-03 5.957233e-02 4.396095e-03 -9.401156e-03 -2.718406e-02 -3.845231e-02 2.105698e-01
<VARIANCE> 39
 3.424112e+01 3.464536e+01 5.174385e+01 3.399499e+01 6.234685e+01 4.038387e+01 4.937611e+01 5.518362e+01 4.625366e+01 3.312321e+01 3.261935e+01 2.903963e+01 1.040664e+02 2.361727e+00 3.130320e+00 4.088570e+00 3.391095e+00 6.064572e+00 3.702828e+00 4.377421e+00 4.579433e+00 3.594540e+00 2.894573e+00 3.055522e+00 2.566421e+00 7.201952e+00 4.605088e-01 5.153334e-01 6.465812e-01 5.759884e-01 9.898574e-01 6.880342e-01 8.318198e-01 8.424286e-01 6.369650e-01 5.746264e-01 6.018080e-01 4.997726e-01 1.001537e+00
<GCONST> 1.325473e+02
<TRANSP> 6
 0.000000e+00 9.053364e-01 9.466363e-02 0.000000e+00 0.000000e+00 0.000000e+00
 0.000000e+00 8.288178e-01 1.490843e-01 2.209793e-02 0.000000e+00 0.000000e+00
 0.000000e+00 0.000000e+00 6.904734e-01 3.095267e-01 0.000000e+00 0.000000e+00
 0.000000e+00 0.000000e+00 0.000000e+00 8.887530e-01 6.451838e-02 4.672860e-02
 0.000000e+00 0.000000e+00 0.000000e+00 0.000000e+00 9.376720e-01 6.232807e-02
 0.000000e+00 0.000000e+00 0.000000e+00 0.000000e+00 0.000000e+00 0.000000e+00
<ENDHMM>
~h "EL"
<BEGINHMM>
<NUMSTATES> 6
<STATE> 2
<MEAN> 39
 1.441659e-01 -4.673618e+00 6.936765e+00 -1.392254e+01 -8.005873e+00 -9.073682e+00 4.640959e-01 2.988085e+00 -2.519113e-01 1.182412e-01 -2.104101e+00 -2.098376e+00 5.728328e+01 1.117142e-01 -5.292227e-02 1.014591e-01 -1.083074e-01 -2.119355e-01 -1.746073e-01 -3.172482e-02 6.914494e-02 -1.563646e-02 -9.877626e-03 2.245227e-02 -1.853790e-02 2.157164e-01 -8.164344e-03 -1.302952e-02 -1.151926e-02 1.701349e-02 7.941133e-03 1.391361e-02 -2.916544e-02 -1.679675e-02 -4.329441e-03 -2.047590e-02 1.527251e-02 -1.441531e-03 8.718799e-04
<VARIANCE> 39
 1.371726e+02 1.565707e+02 1.903837e+02 1.220090e+02 2.775519e+02 1.273250e+02 1.188843e+02 1.092808e+02 1.052468e+02 7.561485e+01 8.574554e+01 4.914368e+01 2.091383e+02 4.199608e+00 4.672770e+00 5.701326e+00 6.264667e+00 9.181502e+00 5.592925e+00 6.106234e+00 5.168729e+00 4.946920e+00 4.340289e+00 4.231362e+00 3.406658e+00 5.730338e+00 6.041068e-01 7.137652e-01 8.374132e-01 1.015077e+00 1.393778e+00 9.490683e-01 1.053810e+00 9.163253e-01 8.512831e-01 7.822955e-01 7.446689e-01 6.097212e-01 7.198241e-01
<GCONST> 1.534610e+02
<STATE> 3
<MEAN> 39
 -3.277110e+00 -1.033695e+01 5.883845e+00 -6.771009e+00 -1.418141e+01 -1.255693e+01 -7.435270e+00 2.171817e+00 4.631628e-01 -2.933296e+00 6.202804e-01 -3.518770e+00 7.253575e+01 5.320902e-02 3.814704e-01 2.169728e-01 3.666966e-01 4.612565e-01 -1.943735e-01 -4.814258e-01 -4.414226e-01 -1.087711e-01 -1.407657e-01 -1.007643e-01 1.964673e-01 -2.601322e-01 -1.001194e-01 2.741776e-01 1.085054e-02 1.142215e-01 2.800212e-01 1.130876e-01 1.052477e-01 -2.026256e-01 -5.083486e-02 8.215207e-03 -9.279967e-02 2.326488e-02 -2.150895e-01
<VARIANCE> 39
 2.841887e+01 4.906803e+01 3.170609e+01 5.786322e+01 4.646397e+01 4.373822e+01 4.799477e+01 5.833066e+01 5.577624e+01 3.752184e+01 3.609450e+01 3.221939e+01 6.832940e+01 3.655239e-01 1.238561e+00 1.261149e+00 1.421172e+00 1.788221e+00 1.664831e+00 1.949521e+00 2.941837e+00 2.400392e+00 1.814613e+00 1.799499e+00 1.534131e+00 6.868213e-01 8.294294e-02 2.220449e-01 1.932314e-01 2.623279e-01 3.608726e-01 3.594742e-01 3.831952e-01 5.659038e-01 4.145996e-01 3.171334e-01 3.400328e-01 2.847116e-01 1.332436e-01
<GCONST> 1.087286e+02
<STATE> 4
<MEAN> 39
 -4.596911e+00 -3.209171e+00 8.145011e+00 -3.716827e+00 -6.942034e+00 -1.168682e+01 -8.093406e+00 -3.526705e+00 -1.489312e+00 -3.762055e+00 -1.556340e+00 -2.213875e+00 6.715225e+01 -1.290618e+00 1.704874e+00 -1.917031e-01 7.475752e-01 1.668099e+00 7.902665e-01 9.912987e-01 -5.713443e-01 -8.125513e-02 2.851421e-01 3.700892e-02 3.434471e-01 -1.147140e+00 -4.379901e-01 -9.195451e-02 -3.419950e-01 -1.076558e-01 1.037052e-01 2.188356e-01 4.869959e-01 3.789784e-01 1.429715e-01 2.042373e-01 2.193616e-01 5.522841e-02 2.719585e-02
<VARIANCE> 39
 2.722351e+01 5.105043e+01 3.723982e+01 4.862210e+01 4.877873e+01 4.884537e+01 4.957481e+01 5.608334e+01 5.045941e+01 3.665284e+01 3.488297e+01 3.701913e+01 9.075328e+01 2.102646e+00 2.406794e+00 2.237214e+00 2.412356e+00 2.860194e+00 3.346166e+00 4.803173e+00 5.258935e+00 3.413217e+00 3.305816e+00 3.357445e+00 2.733758e+00 1.326212e+00 2.551203e-01 4.054368e-01 3.363635e-01 4.379183e-01 4.933020e-01 6.198248e-01 7.124178e-01 8.058193e-01 5.709677e-01 6.083143e-01 5.980025e-01 4.717627e-01 1.820129e-01
<GCONST> 1.250832e+02
<STATE> 5
<MEAN> 39
 -1.276943e+01 6.554091e-01 2.810091e+00 -2.915138e-01 2.146709e-01 -4.114614e+00 6.726286e-01 -2.847408e-01 2.026004e+00 4.869363e-01 1.540027e+00 4.212954e-01 6.121766e+01 -1.485796e+00 -9.295975e-02 -1.754518e+00 -7.046371e-01 1.342171e+00 1.011854e+00 1.119764e+00 6.376745e-01 8.147553e-02 8.749217e-01 7.034654e-01 3.841714e-01 -1.974752e-01 3.647020e-01 -2.938921e-01 -1.486838e-01 -4.452009e-01 -1.172766e-01 -2.109610e-01 -5.030931e-01 -1.863261e-01 -3.132184e-01 -4.979239e-02 -4.783821e-02 -1.568430e-01 5.114528e-01
<VARIANCE> 39
 3.200542e+01 3.435890e+01 3.127877e+01 3.333727e+01 3.731073e+01 4.126731e+01 3.845328e+01 4.274316e+01 2.853941e+01 2.763740e+01 2.377203e+01 2.075422e+01 1.228839e+02 3.661845e+00 2.562372e+00 3.506948e+00 4.003350e+00 3.912696e+00 3.340396e+00 4.974460e+00 3.956187e+00 3.967520e+00 2.917619e+00 2.692943e+00 2.423781e+00 3.476711e+00 3.267362e-01 4.774550e-01 6.485419e-01 5.646539e-01 7.745103e-01 5.928691e-01 7.046025e-01 8.035100e-01 6.762053e-01 5.921484e-01 5.626327e-01 4.633927e-01 5.723495e-01
<GCONST> 1.270310e+02
<TRANSP> 6
 0.000000e+00 4.583648e-01 5.416352e-01 0.000000e+00 0.000000e+00 0.000000e+00
 0.000000e+00 9.600146e-01 2.484989e-02 1.513548e-02 0.000000e+00 0.000000e+00
 0.000000e+00 0.000000e+00 8.661102e-01 1.323848e-01 1.505074e-03 0.000000e+00
 0.000000e+00 0.000000e+00 0.000000e+00 7.567130e-01 1.825001e-01 6.078680e-02
 0.000000e+00 0.000000e+00 0.000000e+00 0.000000e+00 7.576644e-01 2.423356e-01
 0.000000e+00 0.000000e+00 0.000000e+00 0.000000e+00 0.000000e+00 0.000000e+00
<ENDHMM>
~h "LA"
<BEGINHMM>
<NUMSTATES> 6
<STATE> 2
<MEAN> 39
 -1.733222e+00 -5.260254e+00 4.966733e+00 -1.139004e+01 -6.136301e+00 -6.691528e+00 -1.277336e+01 -5.706648e+00 -3.876289e-01 8.497264e-01 -1.340607e+00 -4.426909e+00 6.768473e+01 5.106444e-01 -5.234029e-01 -2.287564e-01 -8.692887e-01 -3.027501e-01 1.149242e-01 -5.331287e-01 3.280989e-01 1.619884e-01 1.963640e-01 -2.132266e-01 -4.541879e-01 8.913833e-01 -4.896063e-02 -4.459336e-01 -4.777303e-01 7.796826e-02 7.203056e-02 1.683013e-01 5.999839e-01 4.858220e-01 1.404871e-01 -1.497627e-01 -2.379921e-01 -1.538468e-01 1.503862e-01
<VARIANCE> 39
 3.955212e+01 6.418662e+01 4.278870e+01 8.340918e+01 5.464531e+01 1.019004e+02 8.081140e+01 7.505037e+01 7.141661e+01 7.135016e+01 9.020901e+01 7.111710e+01 6.966138e+01 1.122867e+00 2.489863e+00 3.489067e+00 2.476914e+00 2.459816e+00 4.021062e+00 7.300030e+00 4.953308e+00 3.247150e+00 3.043281e+00 3.242933e+00 2.867305e+00 1.733613e+00 2.032796e-01 3.204478e-01 4.198506e-01 4.464937e-01 5.008087e-01 6.555336e-01 9.776037e-01 7.912357e-01 5.770385e-01 5.757725e-01 5.760022e-01 5.040058e-01 2.156609e-01
<GCONST> 1.310643e+02
<STATE> 3
<MEAN> 39
 -1.121379e+00 -1.350924e+01 -4.301845e+00 -1.324693e+01 -7.422374e+00 -3.086574e+00 -3.938831e+00 1.822550e+00 3.748709e+00 -1.331082e+00 -5.989371e+00 -9.242501e+00 7.389730e+01 -1.908853e-02 -2.068121e+00 -2.526244e+00 2.545170e-01 9.761710e-01 1.241772e+00 2.763469e+00 1.294821e+00 1.288646e-01 -1.441822e+00 -1.209603e+00 -7.425196e-01 1.245668e+00 4.107042e-02 7.488186e-01 3.765444e-01 2.858621e-01 2.187606e-01 -3.033637e-02 -4.723234e-01 -7.835657e-01 -3.268228e-01 1.607885e-01 6.494851e-01 3.398347e-01 -5.820255e-01
<VARIANCE> 39
 4.048697e+01 6.340738e+01 5.348083e+01 4.892519e+01 5.073633e+01 6.474910e+01 6.756397e+01 3.896022e+01 7.206622e+01 9.721238e+01 5.565741e+01 7.317172e+01 9.775240e+01 4.353585e-01 2.036808e+00 1.711800e+00 2.027958e+00 2.470465e+00 3.077454e+00 3.970164e+00 5.278420e+00 4.002522e+00 3.126887e+00 3.828537e+00 2.465300e+00 8.899347e-01 8.742613e-02 3.562600e-01 3.104005e-01 2.354061e-01 3.937880e-01 4.463223e-01 7.553700e-01 5.794062e-01 5.865473e-01 6.492410e-01 6.147676e-01 4.524872e-01 1.815216e-01
<GCONST> 1.233679e+02
<STATE> 4
<MEAN> 39
 -2.470360e+00 -1.299700e+01 -8.962497e+00 -1.197272e+01 -3.601261e+00 -2.725271e+00 -4.590735e-01 -1.739642e+00 -7.712232e-01 -5.442660e+00 -7.162140e+00 -6.730191e+00 7.249024e+01 3.101071e-01 6.336538e-01 -3.365194e-02 3.232356e-01 1.899722e-01 1.006692e-01 -4.874787e-02 -4.409367e-01 -1.462725e-01 3.327875e-01 4.974084e-01 -2.192536e-02 -7.303010e-01 -1.074395e-02 4.327531e-01 3.917389e-01 1.359051e-01 -7.509280e-02 -1.066450e-01 -1.961649e-01 -5.793651e-02 5.542105e-03 1.473086e-01 1.161516e-01 1.307701e-01 -4.026128e-01
<VARIANCE> 39
 3.234768e+01 5.113403e+01 3.308362e+01 4.198246e+01 3.541848e+01 5.297122e+01 4.539078e+01 3.211030e+01 7.141473e+01 7.140927e+01 5.304511e+01 6.901633e+01 8.405120e+01 7.068703e-01 1.887051e+00 1.367078e+00 1.717554e+00 1.812860e+00 2.165990e+00 2.476778e+00 2.044725e+00 2.368909e+00 3.044672e+00 2.872464e+00 2.538023e+00 2.053511e+00 1.873445e-01 6.101745e-01 3.852554e-01 4.195300e-01 3.681954e-01 4.317938e-01 6.571156e-01 5.327498e-01 5.154051e-01 6.606199e-01 6.091690e-01 4.977763e-01 5.559144e-01
<GCONST> 1.213958e+02
<STATE> 5
<MEAN> 39
 -8.071396e-02 -6.348823e+00 -4.248530e+00 -7.085289e+00 -1.582050e+00 -1.815739e-01 -1.205286e+00 -2.878723e-01 3.207601e+00 4.049561e-01 -1.839263e+00 -7.471310e+00 6.551105e+01 -2.965179e-02 4.437182e-01 3.375313e-01 4.510194e-01 5.508750e-02 -3.068102e-01 -3.593747e-02 -1.705945e-01 -1.188753e-01 3.396396e-02 -1.781940e-01 1.660404e-01 -3.003014e-01 -3.397056e-02 -2.464241e-04 1.018887e-01 3.125747e-02 -1.045334e-01 -8.436693e-02 -2.515423e-02 -7.726558e-02 -4.235458e-02 -2.006331e-02 -7.277416e-02 2.881554e-03 3.770525e-02
<VARIANCE> 39
 6.722779e+01 7.476179e+01 6.023756e+01 5.767685e+01 5.423547e+01 5.158469e+01 5.325437e+01 4.804889e+01 4.518772e+01 5.854736e+01 5.597327e+01 5.121893e+01 1.443710e+02 4.006480e+00 6.474927e+00 4.713280e+00 5.084901e+00 3.631323e+00 3.748876e+00 4.281908e+00 3.951406e+00 3.691373e+00 3.609797e+00 3.679358e+00 4.263818e+00 9.750504e+00 7.884540e-01 1.039449e+00 8.244205e-01 8.818362e-01 6.788685e-01 6.810831e-01 7.849928e-01 8.176522e-01 7.369636e-01 7.473077e-01 7.508659e-01 8.260337e-01 1.511325e+00
<GCONST> 1.420488e+02
<TRANSP> 6
 0.000000e+00 8.870106e-01 1.129894e-01 0.000000e+00 0.000000e+00 0.000000e+00
 0.000000e+00 8.739299e-01 1.260701e-01 0.000000e+00 0.000000e+00 0.000000e+00
 0.000000e+00 0.000000e+00 5.936522e-01 4.063477e-01 0.000000e+00 0.000000e+00
 0.000000e+00 0.000000e+00 0.000000e+00 8.176947e-01 1.522612e-01 3.004409e-02
 0.000000e+00 0.000000e+00 0.000000e+00 0.000000e+00 9.397525e-01 6.024753e-02
 0.000000e+00 0.000000e+00 0.000000e+00 0.000000e+00 0.000000e+00 0.000000e+00
<ENDHMM>
~h "PEGAR"
<BEGINHMM>
<NUMSTATES> 6
<STATE> 2
<MEAN> 39
 -2.121334e+00 -6.511357e+00 4.396811e+00 -5.042437e+00 -1.328279e+01 -1.007934e+01 7.550448e-01 4.216405e+00 1.963373e+00 -6.904292e-01 1.167712e+00 -2.488614e+00 6.359771e+01 1.225046e+00 -1.168356e+00 8.701545e-01 -8.958209e-01 -2.437413e+00 -1.198459e+00 -3.430159e-01 4.253788e-01 -3.144718e-01 -2.221506e-01 1.600291e-02 -5.343955e-01 2.901384e+00 -2.705576e-01 -6.818040e-02 -8.999781e-02 -9.886427e-02 1.196773e-01 3.358402e-01 1.734070e-01 -6.821395e-02 -9.579865e-03 6.155245e-02 6.990380e-02 2.576367e-02 -2.933583e-01
<VARIANCE> 39
 9.452428e+01 6.458900e+01 8.409417e+01 7.393310e+01 2.110447e+02 7.181276e+01 6.893547e+01 9.842718e+01 5.155926e+01 6.802292e+01 5.712700e+01 3.650209e+01 2.215161e+02 5.412280e+00 5.185224e+00 6.261198e+00 4.769175e+00 1.227613e+01 6.778780e+00 5.062751e+00 5.416735e+00 4.646986e+00 3.654864e+00 4.790120e+00 2.603924e+00 1.199060e+01 8.477969e-01 9.075943e-01 7.889655e-01 7.301919e-01 1.751821e+00 1.068665e+00 8.020846e-01 8.368207e-01 7.968098e-01 5.601685e-01 7.144219e-01 4.304104e-01 1.935896e+00
<GCONST> 1.491769e+02
<STATE> 3
<MEAN> 39
 -4.942634e+00 -8.267441e+00 6.455205e+00 -6.034733e+00 -1.676459e+01 -1.057649e+01 -4.046163e-01 8.582979e-01 -1.792994e-01 -7.060966e-01 2.142827e+00 -3.189062e+00 7.298445e+01 1.381688e-02 -3.083974e-01 -6.718484e-01 -4.895249e-02 5.657474e-01 3.093911e-01 2.564733e-01 3.166644e-02 1.530383e-01 -2.964386e-01 -4.909375e-01 -2.480931e-01 6.697492e-02 8.936906e-03 -1.294846e-02 -1.405046e-01 6.585290e-02 2.135646e-01 9.193765e-02 1.380522e-02 -2.640549e-02 4.144660e-03 -6.725258e-02 -8.765502e-02 -1.777494e-02 -3.518637e-02
<VARIANCE> 39
 3.385228e+01 6.301470e+01 5.421513e+01 5.038771e+01 6.231393e+01 5.628889e+01 5.638524e+01 9.614890e+01 5.693752e+01 4.402579e+01 7.491145e+01 3.147529e+01 7.186572e+01 4.764545e-01 2.063181e+00 1.800231e+00 1.569592e+00 1.988393e+00 2.124432e+00 1.796673e+00 2.297021e+00 2.573055e+00 1.909990e+00 2.350400e+00 1.747944e+00 1.415119e+00 9.420995e-02 3.203265e-01 1.915318e-01 2.835568e-01 3.409277e-01 3.100744e-01 2.830701e-01 3.685157e-01 3.914742e-01 2.913614e-01 3.343702e-01 2.810947e-01 2.665204e-01
<GCONST> 1.143365e+02
<STATE> 4
<MEAN> 39
 -3.082707e+00 -1.574727e+01 -6.302332e+00 -7.441088e+00 -5.130300e+00 -2.831353e+00 3.477605e+00 1.502931e+00 1.034734e+00 -6.638217e+00 -6.360143e+00 -6.893551e+00 7.521203e+01 2.614735e-02 8.232877e-02 -3.515370e-01 2.015501e-01 3.793656e-01 3.206818e-01 1.188256e-01 -2.009294e-01 -8.839916e-02 -9.523708e-02 -1.785139e-01 3.488754e-03 -2.365573e-01 1.887275e-02 1.881708e-01 1.447124e-01 6.167471e-02 -1.548169e-01 -1.522127e-01 -8.071865e-02 4.760869e-02 5.948460e-02 1.390857e-01 8.907177e-02 6.356535e-02 -1.570944e-01
<VARIANCE> 39
 3.899320e+01 4.575053e+01 4.535366e+01 5.551630e+01 5.675232e+01 4.238080e+01 6.304242e+01 6.128350e+01 6.742568e+01 5.266341e+01 2.664248e+01 5.112045e+01 6.975993e+01 2.362247e-01 6.819938e-01 7.607729e-01 7.063240e-01 1.286160e+00 1.404552e+00 1.186760e+00 1.357740e+00 1.168896e+00 1.209310e+00 1.216892e+00 1.106138e+00 3.477348e-01 3.969674e-02 9.311173e-02 1.121203e-01 1.261279e-01 1.797498e-01 1.764429e-01 1.928252e-01 2.298147e-01 2.152706e-01 2.074615e-01 2.203132e-01 1.882654e-01 4.049921e-02
<GCONST> 9.496074e+01
<STATE> 5
<MEAN> 39
 -3.965455e+00 -8.082369e+00 -2.790325e+00 -3.873091e+00 -4.504144e+00 -1.945070e+00 4.112023e+00 2.290071e+00 3.522939e+00 -2.130308e+00 -5.064518e+00 -5.058650e+00 6.439164e+01 -5.130789e-01 8.715807e-01 6.002067e-01 4.335941e-01 5.150345e-01 2.889085e-01 4.502040e-02 1.358708e-02 9.060986e-02 4.011414e-01 4.464773e-01 4.688639e-01 -1.368380e+00 -8.125643e-02 -4.093781e-02 1.532759e-02 -3.050279e-02 1.006198e-01 4.781103e-02 2.338575e-02 -5.326228e-04 -3.157743e-02 -4.171468e-02 6.001339e-02 3.687412e-02 1.182518e-02
<VARIANCE> 39
 5.097337e+01 4.851192e+01 5.292759e+01 5.006290e+01 5.582848e+01 4.415013e+01 4.420769e+01 6.099913e+01 6.501022e+01 7.570367e+01 4.151667e+01 4.486805e+01 1.532028e+02 1.793169e+00 2.223998e+00 2.621500e+00 2.118027e+00 2.819945e+00 2.519224e+00 2.612056e+00 3.280590e+00 3.083226e+00 3.033278e+00 2.657725e+00 2.137482e+00 9.514036e-01 2.760998e-01 3.236124e-01 4.224338e-01 3.582366e-01 4.672155e-01 4.483034e-01 4.632200e-01 5.432311e-01 5.431012e-01 4.929442e-01 4.869687e-01 4.096987e-01 1.698178e-01
<GCONST> 1.233252e+02
<TRANSP> 6
 0.000000e+00 1.000000e+00 0.000000e+00 0.000000e+00 0.000000e+00 0.000000e+00
 0.000000e+00 8.606142e-01 1.393858e-01 0.000000e+00 0.000000e+00 0.000000e+00
 0.000000e+00 0.000000e+00 9.260993e-01 7.390065e-02 0.000000e+00 0.000000e+00
 0.000000e+00 0.000000e+00 0.000000e+00 9.080043e-01 7.866151e-02 1.333414e-02
 0.000000e+00 0.000000e+00 0.000000e+00 0.000000e+00 9.134657e-01 8.653427e-02
 0.000000e+00 0.000000e+00 0.000000e+00 0.000000e+00 0.000000e+00 0.000000e+00
<ENDHMM>
~h "REINICIAR"
<BEGINHMM>
<NUMSTATES> 6
<STATE> 2
<MEAN> 39
 -3.177195e+00 -4.752329e+00 4.141940e+00 -1.365692e+00 -6.803619e+00 -7.305452e+00 -3.465253e+00 -1.067321e+00 1.112866e+00 -1.098196e+00 -1.140181e+00 -3.476344e+00 6.556566e+01 6.170042e-01 -7.205572e-01 3.603923e-01 -3.581073e-01 -1.299780e+00 -6.871879e-01 -4.548863e-01 3.735303e-01 -3.142782e-02 -8.092769e-02 1.268768e-01 -1.368678e-01 1.377097e+00 -1.452917e-01 -2.334656e-02 4.880970e-02 -6.615064e-02 -1.172591e-02 1.049411e-01 1.010211e-01 4.934852e-02 -3.678858e-02 5.608661e-02 1.222491e-01 7.240590e-02 -1.160088e-01
<VARIANCE> 39
 3.248335e+01 7.093594e+01 3.785437e+01 4.470081e+01 7.290910e+01 6.446784e+01 4.677467e+01 6.304530e+01 5.743906e+01 5.264391e+01 4.375869e+01 3.955131e+01 1.080095e+02 2.682902e+00 4.737260e+00 2.960482e+00 2.253408e+00 4.071067e+00 4.326228e+00 3.684009e+00 5.318436e+00 4.653803e+00 4.237903e+00 3.577794e+00 3.024779e+00 3.474683e+00 4.500924e-01 9.647035e-01 5.202019e-01 4.277201e-01 7.974929e-01 8.162261e-01 6.534126e-01 9.779524e-01 8.215346e-01 7.184227e-01 6.373792e-01 5.657641e-01 5.917875e-01
<GCONST> 1.350574e+02
<STATE> 3
<MEAN> 39
 -4.728588e+00 -3.935603e+00 1.137121e+01 -1.035205e+01 -1.416454e+01 -5.660832e+00 -5.674426e+00 -4.612413e+00 -5.099729e+00 -8.567911e-01 -9.237016e-01 -4.009772e+00 7.013457e+01 -1.877977e-01 5.293730e-01 4.072944e-01 -1.935641e-01 1.063302e-01 5.101771e-01 4.676808e-02 -5.452213e-01 -3.232268e-01 3.669138e-02 -2.580550e-02 -9.185253e-02 -2.749392e-01 1.650445e-02 3.676159e-02 -1.216155e-01 1.218019e-01 1.123158e-01 -2.753045e-02 3.861370e-02 -6.164247e-03 4.989211e-02 -7.197286e-03 -3.843718e-02 -6.871739e-05 -6.451108e-02
<VARIANCE> 39
 3.147276e+01 6.796533e+01 6.798255e+01 1.088244e+02 6.647467e+01 6.006292e+01 4.906230e+01 6.385401e+01 6.272696e+01 4.155492e+01 6.902521e+01 3.135805e+01 6.355634e+01 5.344482e-01 8.968713e-01 2.290281e+00 2.631554e+00 2.178767e+00 2.035413e+00 2.175498e+00 1.995384e+00 2.042032e+00 1.898064e+00 1.796930e+00 1.760093e+00 4.870229e-01 7.967730e-02 1.320731e-01 3.325849e-01 4.321522e-01 3.448338e-01 3.837163e-01 3.709987e-01 3.295229e-01 3.149860e-01 3.331000e-01 3.139894e-01 3.120734e-01 6.183174e-02
<GCONST> 1.121201e+02
<STATE> 4
<MEAN> 39
 -9.603500e+00 8.759556e-01 9.507945e+00 -3.856389e+00 -9.505836e+00 -3.579561e+00 -4.993397e-01 -6.739683e+00 -3.370810e+00 -7.611730e-01 7.389719e-01 -2.458652e+00 6.745963e+01 5.371835e-03 -2.997936e-01 -1.660354e-01 -9.226011e-02 -2.955391e-01 -4.704601e-01 2.958053e-02 2.650948e-01 1.324073e-01 2.229087e-02 1.448000e-01 9.206178e-02 2.876081e-01 1.729722e-02 -1.233533e-01 -4.982854e-02 -9.567487e-02 -4.876083e-02 9.184987e-03 8.648855e-04 1.352438e-01 5.306522e-02 -1.643280e-02 -6.444972e-03 -2.378840e-02 8.359876e-02
<VARIANCE> 39
 5.912858e+01 3.486752e+01 6.672640e+01 7.990152e+01 8.720454e+01 5.810277e+01 6.118600e+01 4.803036e+01 5.624574e+01 3.058942e+01 4.133126e+01 3.075853e+01 7.438671e+01 3.408405e+00 2.375364e+00 5.556705e+00 4.387680e+00 6.885568e+00 3.782428e+00 4.798607e+00 4.244488e+00 3.429149e+00 2.654485e+00 2.613040e+00 2.025812e+00 1.662551e+00 4.686125e-01 3.329443e-01 8.843291e-01 6.562220e-01 1.086410e+00 6.902301e-01 8.183104e-01 7.149991e-01 6.405972e-01 5.113066e-01 4.889793e-01 3.611428e-01 2.111756e-01
<GCONST> 1.316250e+02
<STATE> 5
<MEAN> 39
 -6.212665e+00 -1.061759e+01 -1.702551e+00 -1.090851e+01 -1.212416e+01 -8.988430e+00 -6.192304e-01 1.072934e+00 -2.558345e+00 -5.517286e+00 -3.149028e+00 -4.372956e+00 7.263575e+01 1.094155e-01 -2.913848e-01 -6.286887e-01 1.831284e-01 4.943483e-01 1.912946e-01 -3.554655e-02 4.080902e-01 3.724154e-01 -1.988595e-01 -3.597870e-01 -1.591930e-01 -1.774794e-01 -1.272065e-02 1.640202e-01 1.664983e-01 6.578069e-02 1.905545e-02 1.948448e-02 -1.301815e-01 -2.008711e-01 -4.374540e-02 5.737212e-02 1.249741e-02 3.733382e-02 -1.120879e-01
<VARIANCE> 39
 3.459090e+01 5.784178e+01 5.951711e+01 6.724499e+01 5.578467e+01 4.467616e+01 4.755618e+01 5.411303e+01 7.925033e+01 6.347054e+01 4.268616e+01 4.163737e+01 7.603428e+01 4.827413e-01 1.674187e+00 2.469296e+00 1.546707e+00 2.105110e+00 1.656232e+00 2.476070e+00 2.758668e+00 2.469225e+00 2.650406e+00 2.361743e+00 1.766001e+00 8.453870e-01 6.800940e-02 1.650088e-01 2.520872e-01 2.715305e-01 3.820972e-01 3.240651e-01 3.964303e-01 4.168597e-01 3.512260e-01 4.098230e-01 4.279419e-01 2.970363e-01 1.132194e-01
<GCONST> 1.137804e+02
<TRANSP> 6
 0.000000e+00 1.000000e+00 0.000000e+00 0.000000e+00 0.000000e+00 0.000000e+00
 0.000000e+00 9.078566e-01 8.042469e-02 1.171878e-02 0.000000e+00 0.000000e+00
 0.000000e+00 0.000000e+00 9.478273e-01 5.217276e-02 0.000000e+00 0.000000e+00
 0.000000e+00 0.000000e+00 0.000000e+00 9.464338e-01 3.920325e-02 1.436291e-02
 0.000000e+00 0.000000e+00 0.000000e+00 0.000000e+00 9.348578e-01 6.514222e-02
 0.000000e+00 0.000000e+00 0.000000e+00 0.000000e+00 0.000000e+00 0.000000e+00
<ENDHMM>
~h "PERSONAL"
<BEGINHMM>
<NUMSTATES> 6
<STATE> 2
<MEAN> 39
 -4.782110e+00 -6.740295e+00 4.664930e-01 -4.171993e+00 -8.190760e+00 -8.472566e+00 -3.332420e+00 1.010538e+00 3.145136e+00 -1.487997e+00 -5.081373e-01 -3.638130e+00 6.823788e+01 -4.953591e-02 1.059303e-01 7.338119e-02 -5.773597e-02 8.078245e-02 -5.212379e-02 -7.397813e-02 -4.597032e-03 1.579814e-02 -2.864853e-02 1.522658e-02 5.248265e-03 1.124390e-01 -1.182349e-01 8.730905e-02 -2.359822e-02 4.450566e-04 1.576657e-01 8.675902e-02 7.986291e-02 1.070699e-03 -1.264862e-02 2.087781e-02 -1.094879e-02 1.760869e-02 -9.610642e-02
<VARIANCE> 39
 3.331336e+01 5.050241e+01 5.187918e+01 4.149583e+01 7.589226e+01 5.239428e+01 4.814429e+01 3.979165e+01 4.431104e+01 4.426563e+01 3.887994e+01 3.669225e+01 1.212648e+02 3.488973e+00 5.067687e+00 2.949599e+00 3.934050e+00 6.301376e+00 3.631790e+00 3.969944e+00 3.299167e+00 3.234354e+00 2.931038e+00 3.479349e+00 2.765544e+00 8.680642e+00 6.395316e-01 8.258111e-01 4.655317e-01 7.197951e-01 9.826056e-01 6.831159e-01 7.558998e-01 6.460428e-01 5.978938e-01 5.629569e-01 6.716392e-01 5.175112e-01 1.395681e+00
<GCONST> 1.353098e+02
<STATE> 3
<MEAN> 39
 -1.078158e+01 -8.289345e-01 1.041389e+00 -4.347592e+00 -5.616619e-01 -3.858231e+00 -3.389505e+00 -6.155458e-01 3.137769e+00 -6.662810e-01 -8.233012e-01 -3.121081e+00 6.879833e+01 2.850537e-01 -2.057248e-01 -2.154674e-01 6.768166e-02 4.679246e-02 2.212183e-01 -1.143387e-01 -1.603635e-01 -4.906006e-02 -3.350007e-04 -1.241085e-01 -1.632707e-01 1.431620e-02 9.573577e-02 -1.453208e-01 -8.635279e-02 -4.486626e-02 -4.942996e-02 5.504355e-03 -4.568861e-02 7.150851e-02 4.634849e-02 -6.761561e-02 -3.065980e-02 -2.078020e-02 7.083479e-02
<VARIANCE> 39
 1.130206e+02 3.966221e+01 5.187941e+01 3.936700e+01 4.641996e+01 6.273052e+01 4.350060e+01 5.660714e+01 4.042532e+01 3.852489e+01 3.916146e+01 3.090404e+01 6.064014e+01 6.251478e+00 2.434041e+00 3.204790e+00 2.527579e+00 2.866120e+00 3.263497e+00 2.541420e+00 3.454480e+00 2.815389e+00 2.653069e+00 2.160560e+00 2.048105e+00 1.194841e+00 6.995993e-01 4.175451e-01 5.741581e-01 4.551261e-01 4.654524e-01 5.614049e-01 4.533254e-01 6.113192e-01 4.930592e-01 4.987226e-01 4.051579e-01 3.611887e-01 2.319245e-01
<GCONST> 1.249613e+02
<STATE> 4
<MEAN> 39
 -1.518547e+00 -1.222414e+01 -5.687492e+00 -6.952756e+00 2.080777e-02 -2.687315e+00 -4.523529e+00 1.185363e+00 6.627911e-01 -5.810974e+00 -5.244269e+00 -5.994749e+00 7.165984e+01 -2.950181e-02 -3.015552e-02 -5.978481e-02 -2.042858e-01 -1.496049e-01 -8.903086e-02 2.959753e-01 3.616980e-01 1.786859e-01 1.216017e-01 -3.740822e-02 -1.763672e-02 -3.479110e-02 -2.220578e-02 3.803779e-01 3.046582e-01 1.654277e-01 -1.847260e-01 -2.028955e-01 -8.322604e-02 -2.853275e-01 -6.065962e-02 2.550998e-01 1.144949e-01 5.376592e-02 -2.624022e-01
<VARIANCE> 39
 3.443657e+01 4.658448e+01 3.536638e+01 4.187792e+01 4.555295e+01 5.433898e+01 5.154749e+01 4.859484e+01 8.171568e+01 8.139497e+01 3.981326e+01 4.785641e+01 7.790195e+01 3.213972e-01 2.035563e+00 1.817435e+00 1.272729e+00 1.971342e+00 1.732427e+00 2.209548e+00 2.511982e+00 2.127531e+00 2.863985e+00 1.882144e+00 1.211218e+00 9.165676e-01 5.356320e-02 1.423287e-01 1.751462e-01 2.115345e-01 2.361135e-01 2.526108e-01 4.160805e-01 4.564238e-01 3.471612e-01 3.342558e-01 2.957038e-01 2.200941e-01 4.643604e-02
<GCONST> 1.080010e+02
<STATE> 5
<MEAN> 39
 -3.372100e+00 -9.410318e-01 2.376527e+00 -4.131422e+00 -2.386271e+00 -7.183831e+00 -6.802584e+00 -2.117762e+00 1.231903e+00 -1.936122e-01 -2.165277e+00 -3.790890e+00 6.217188e+01 -6.264405e-01 7.805824e-01 5.249628e-01 5.344199e-01 3.826936e-01 1.767108e-01 1.882932e-01 -1.651869e-01 -4.577930e-02 -5.222443e-02 2.475000e-01 5.295892e-01 -1.045410e+00 -7.660735e-02 -2.350610e-01 -1.644476e-01 -7.579027e-03 1.125289e-01 2.144581e-01 2.101191e-01 1.213674e-01 2.081901e-02 -1.092350e-01 -5.191256e-02 -2.063780e-02 6.273152e-02
<VARIANCE> 39
 2.768160e+01 4.301073e+01 3.579651e+01 3.714507e+01 4.254264e+01 5.803477e+01 6.588899e+01 4.117810e+01 4.342209e+01 6.539517e+01 3.495684e+01 4.463060e+01 9.559932e+01 5.801598e-01 1.955367e+00 1.609792e+00 1.394254e+00 1.699404e+00 2.482874e+00 3.431318e+00 2.624361e+00 1.820330e+00 1.971924e+00 1.696689e+00 1.734982e+00 4.439030e-01 7.853474e-02 1.764974e-01 1.938561e-01 2.283277e-01 3.022266e-01 3.235278e-01 4.138023e-01 4.143608e-01 3.407568e-01 3.346559e-01 3.124952e-01 3.139442e-01 4.501648e-02
<GCONST> 1.085729e+02
<TRANSP> 6
 0.000000e+00 1.000000e+00 0.000000e+00 0.000000e+00 0.000000e+00 0.000000e+00
 0.000000e+00 9.572729e-01 3.298362e-02 9.743540e-03 0.000000e+00 0.000000e+00
 0.000000e+00 0.000000e+00 9.621723e-01 3.782763e-02 0.000000e+00 0.000000e+00
 0.000000e+00 0.000000e+00 0.000000e+00 8.970460e-01 9.541181e-02 7.542218e-03
 0.000000e+00 0.000000e+00 0.000000e+00 0.000000e+00 9.069675e-01 9.303249e-02
 0.000000e+00 0.000000e+00 0.000000e+00 0.000000e+00 0.000000e+00 0.000000e+00
<ENDHMM>
~h "BUSCAR"
<BEGINHMM>
<NUMSTATES> 6
<STATE> 2
<MEAN> 39
 -1.837802e+00 4.271119e+00 1.182727e+00 -8.285124e+00 -3.737532e+00 -1.525197e+00 -4.104585e+00 -8.810613e+00 -6.764086e+00 -4.667529e+00 8.225881e-02 -1.253595e+00 6.436863e+01 -3.344154e-01 -9.845043e-02 -3.635519e-03 -2.809551e-01 2.287809e-01 -1.779417e-01 -3.610942e-01 -2.775799e-01 3.061245e-01 1.988411e-01 3.857698e-01 2.622660e-01 7.394538e-01 -4.371869e-01 -1.018344e-01 3.298233e-02 2.086907e-01 2.230361e-01 -7.208966e-02 1.370975e-01 2.249046e-01 2.822867e-01 8.390298e-02 -4.106509e-02 1.513212e-02 -8.641131e-02
<VARIANCE> 39
 2.924129e+01 2.358759e+01 3.239631e+01 8.276210e+01 4.945346e+01 4.887379e+01 5.955017e+01 5.633663e+01 5.559178e+01 3.691023e+01 5.310014e+01 3.523017e+01 6.805950e+01 4.435601e+00 1.764252e+00 2.116131e+00 7.361723e+00 5.035080e+00 3.455716e+00 3.441679e+00 5.025979e+00 5.642496e+00 3.416543e+00 3.663487e+00 2.741367e+00 1.174454e+00 3.672355e-01 2.945158e-01 3.514867e-01 9.871013e-01 6.322116e-01 6.128758e-01 6.139848e-01 8.457897e-01 8.067962e-01 6.040202e-01 6.529145e-01 5.021479e-01 2.187063e-01
<GCONST> 1.290937e+02
<STATE> 3
<MEAN> 39
 -1.834596e+01 -9.816599e-01 1.272027e+00 -1.817731e+00 4.585440e+00 -2.945961e+00 -2.246412e+00 -2.788138e+00 4.318048e+00 -1.012336e+00 1.584208e+00 8.392361e-01 6.279963e+01 -1.609264e-01 -4.050725e-01 -3.526007e-01 2.291466e-01 3.355100e-02 -4.037841e-02 2.166926e-01 7.031566e-01 1.841420e-01 8.301149e-02 -1.223477e-01 -5.876541e-02 -4.954051e-01 3.718976e-01 -6.999905e-02 -1.371888e-01 -1.572228e-01 -1.759743e-01 -4.361740e-02 -1.268092e-01 -5.669260e-02 -1.471233e-01 3.802569e-03 3.895217e-03 -4.029924e-02 1.348674e-01
<VARIANCE> 39
 4.322327e+01 3.496787e+01 3.827145e+01 3.728965e+01 4.299271e+01 5.604282e+01 5.063154e+01 6.472096e+01 6.078848e+01 3.357879e+01 2.725420e+01 2.023500e+01 1.125280e+02 5.564732e+00 2.269054e+00 2.042870e+00 1.795168e+00 2.448675e+00 3.223879e+00 2.847057e+00 2.865516e+00 3.577707e+00 2.276467e+00 2.237110e+00 1.836806e+00 3.490772e+00 5.896041e-01 5.008428e-01 4.195609e-01 3.960735e-01 5.467898e-01 6.797677e-01 6.053333e-01 5.564773e-01 6.311175e-01 4.956304e-01 4.481940e-01 3.784982e-01 7.093577e-01
<GCONST> 1.251895e+02
<STATE> 4
<MEAN> 39
 -4.056602e+00 -7.080405e+00 9.870014e-01 -9.637733e+00 1.415783e+00 -5.857538e+00 -1.681777e+00 1.623037e+00 1.599301e+00 9.170644e-01 -3.331077e+00 -1.768247e+00 5.936341e+01 6.918200e-01 -5.985864e-01 -1.804818e-01 -5.931368e-01 -6.856962e-01 -3.248416e-01 -9.767512e-04 1.500282e-01 4.364153e-02 -1.094202e-01 -4.533438e-01 -5.353157e-01 1.043168e+00 -5.499880e-02 -7.879850e-03 3.330180e-02 -1.797625e-03 2.831922e-02 2.207121e-01 1.375402e-01 -3.605316e-02 1.519530e-02 -8.092332e-02 1.977661e-03 -2.284588e-02 -9.092189e-02
<VARIANCE> 39
 1.202489e+02 1.428837e+02 1.245664e+02 1.229554e+02 1.610017e+02 1.189965e+02 9.177788e+01 1.118380e+02 1.161203e+02 7.798692e+01 6.362857e+01 7.003379e+01 2.767202e+02 4.656285e+00 6.064474e+00 6.488229e+00 5.522968e+00 6.674553e+00 7.012602e+00 6.122467e+00 6.149697e+00 5.674086e+00 4.986403e+00 4.529218e+00 4.332238e+00 6.918370e+00 5.651635e-01 9.920365e-01 1.024597e+00 9.112826e-01 1.188505e+00 1.186040e+00 1.052861e+00 9.313667e-01 9.352630e-01 8.498046e-01 7.589623e-01 7.202559e-01 8.176159e-01
<GCONST> 1.545875e+02
<STATE> 5
<MEAN> 39
 -3.309073e+00 -1.141082e+01 -4.714468e+00 -6.244342e+00 -3.169720e+00 -4.258037e+00 2.153608e+00 1.845363e+00 2.452064e+00 -3.307636e+00 -5.398559e+00 -6.548429e+00 7.004724e+01 -2.597558e-01 3.992114e-01 1.515059e-01 3.989771e-01 3.304996e-01 4.074961e-01 2.646563e-01 -5.671080e-02 -2.899635e-02 5.353713e-02 1.576047e-01 2.175774e-01 -7.850986e-01 -8.374583e-02 1.062607e-01 6.210889e-02 5.291669e-02 5.678243e-02 -4.798197e-02 -5.780776e-02 -6.306322e-03 -4.878220e-04 6.090557e-02 6.730675e-02 9.481526e-02 -1.002404e-01
<VARIANCE> 39
 3.226469e+01 6.482714e+01 4.893399e+01 4.271595e+01 4.369625e+01 4.348202e+01 3.854491e+01 5.758789e+01 7.051514e+01 6.421352e+01 3.795251e+01 4.245529e+01 1.206405e+02 1.226599e+00 1.710966e+00 1.771125e+00 1.482249e+00 1.958679e+00 1.935180e+00 1.970762e+00 2.220337e+00 1.980516e+00 2.142438e+00 1.972288e+00 1.816650e+00 1.108729e+00 1.882580e-01 2.591936e-01 2.575537e-01 2.871969e-01 3.767522e-01 3.313758e-01 3.267974e-01 4.001053e-01 3.596745e-01 3.687305e-01 3.717463e-01 3.274742e-01 1.454401e-01
<GCONST> 1.143646e+02
<TRANSP> 6
 0.000000e+00 8.775147e-01 1.224854e-01 0.000000e+00 0.000000e+00 0.000000e+00
 0.000000e+00 9.261733e-01 7.382670e-02 0.000000e+00 0.000000e+00 0.000000e+00
 0.000000e+00 0.000000e+00 9.237750e-01 7.622493e-02 0.000000e+00 0.000000e+00
 0.000000e+00 0.000000e+00 0.000000e+00 9.271622e-01 7.283783e-02 0.000000e+00
 0.000000e+00 0.000000e+00 0.000000e+00 0.000000e+00 9.463786e-01 5.362142e-02
 0.000000e+00 0.000000e+00 0.000000e+00 0.000000e+00 0.000000e+00 0.000000e+00
<ENDHMM>
~h "ESCRITORIO"
<BEGINHMM>
<NUMSTATES> 6
<STATE> 2
<MEAN> 39
 -1.089848e+01 -1.331112e+00 3.869899e+00 -1.365740e+00 -3.848576e+00 -8.129837e+00 -1.387004e+00 6.218463e-01 -5.892720e-01 -1.149079e+00 1.606896e+00 -6.686770e-01 6.368800e+01 -1.165943e-01 1.910542e-01 1.284361e-01 3.985149e-02 1.535189e-01 4.003581e-02 4.763563e-02 -7.469894e-02 -4.491971e-02 3.917949e-02 8.136790e-02 9.282521e-02 -1.240606e-01 4.383363e-02 -5.833904e-02 -2.007456e-02 -4.278504e-02 -5.504573e-02 -1.148066e-02 -4.188912e-02 7.206441e-03 2.243472e-02 6.658497e-03 -2.119102e-02 -3.271305e-02 6.579362e-02
<VARIANCE> 39
 5.421611e+01 3.651600e+01 4.631686e+01 3.836462e+01 7.043375e+01 5.211752e+01 4.479028e+01 5.484962e+01 4.524778e+01 2.902204e+01 2.298499e+01 2.264134e+01 9.262366e+01 3.815151e+00 3.407335e+00 2.758574e+00 2.486776e+00 5.407375e+00 3.740342e+00 3.009123e+00 3.093571e+00 3.213024e+00 2.299629e+00 2.271736e+00 2.055319e+00 4.105371e+00 6.014083e-01 6.168703e-01 3.993569e-01 4.385764e-01 8.769121e-01 7.119441e-01 5.461906e-01 5.609803e-01 5.580639e-01 4.319627e-01 4.308662e-01 3.991165e-01 6.733261e-01
<GCONST> 1.274441e+02
<STATE> 3
<MEAN> 39
 -1.863477e+00 -5.278141e+00 8.032730e+00 -1.182012e+01 -5.976672e+00 -8.814675e+00 -1.726651e+00 1.825871e-01 1.051328e-01 2.557797e-01 -7.727674e-01 -1.984113e+00 6.134763e+01 2.216611e-01 -1.104028e-01 -6.940304e-02 -2.902847e-01 -1.016378e-01 -1.066237e-01 -3.619347e-01 -5.601683e-02 1.717503e-01 1.702706e-01 -4.221562e-02 -1.636682e-01 3.286634e-01 2.149486e-02 -2.618781e-02 -3.746851e-02 -4.213208e-03 -6.561366e-03 5.997743e-02 -1.132595e-02 -1.946159e-02 1.172037e-02 3.089603e-02 1.995521e-02 -4.164602e-02 -2.485148e-02
<VARIANCE> 39
 1.248348e+02 1.388034e+02 1.215642e+02 1.320157e+02 2.444291e+02 1.298946e+02 1.021984e+02 9.610442e+01 1.264391e+02 7.345747e+01 7.314503e+01 4.908999e+01 1.888157e+02 5.527185e+00 6.146578e+00 6.446158e+00 6.318657e+00 9.090487e+00 6.727670e+00 7.738241e+00 5.232413e+00 6.463367e+00 4.949829e+00 4.543296e+00 3.755084e+00 8.620462e+00 8.327609e-01 1.028309e+00 9.436833e-01 9.716896e-01 1.386696e+00 1.189645e+00 1.295344e+00 8.976057e-01 1.066621e+00 8.724131e-01 8.197626e-01 6.408229e-01 1.324955e+00
<GCONST> 1.567206e+02
<STATE> 4
<MEAN> 39
 -2.318715e+00 -7.158474e+00 3.255594e+00 -9.340716e+00 -8.516790e+00 -7.621626e+00 -9.610462e+00 -4.923273e+00 1.643515e+00 1.402682e+00 -1.129303e+00 -4.893808e+00 6.853046e+01 1.815997e-02 1.670086e-01 5.070626e-01 4.662210e-01 -2.908803e-01 1.062771e-01 1.417218e-01 -8.475775e-02 -4.555451e-01 -2.456569e-01 1.112680e-01 1.437077e-01 -3.754550e-01 -1.235176e-01 8.455607e-02 1.182369e-01 6.062328e-02 3.056736e-02 -2.530050e-02 1.263866e-01 3.568916e-02 -1.347569e-01 -3.848119e-02 3.391024e-02 7.954036e-02 -7.404539e-02
<VARIANCE> 39
 2.959291e+01 5.454225e+01 9.568857e+01 9.879401e+01 7.953642e+01 6.535667e+01 4.041054e+01 6.221268e+01 1.008654e+02 6.388109e+01 5.185080e+01 4.189690e+01 8.102863e+01 1.124834e+00 1.499550e+00 4.082551e+00 4.210747e+00 3.713880e+00 3.518776e+00 2.571603e+00 3.375674e+00 4.084960e+00 3.875278e+00 3.289130e+00 2.961448e+00 1.583931e+00 2.021436e-01 2.493883e-01 3.921358e-01 7.259256e-01 6.722093e-01 6.204044e-01 5.357160e-01 5.882806e-01 6.600807e-01 6.724873e-01 6.359325e-01 5.897314e-01 3.046441e-01
<GCONST> 1.297946e+02
<STATE> 5
<MEAN> 39
 -4.201474e+00 -1.254675e+00 5.946389e+00 -3.714216e+00 -7.538373e+00 -7.140268e+00 -5.408286e+00 -3.516710e+00 -2.599301e+00 2.927670e-01 7.560195e-01 -2.478037e+00 6.365643e+01 -1.539086e-01 1.625827e-01 -7.427151e-01 -7.332773e-03 7.828125e-01 5.582617e-01 5.227854e-01 1.378144e-01 2.357046e-01 1.569634e-01 -9.152156e-02 -4.639673e-02 -4.743155e-01 -3.556412e-02 -4.623144e-02 -1.089870e-01 3.850445e-02 9.600463e-02 6.302474e-02 5.913049e-02 3.695541e-02 1.187764e-01 -2.827282e-02 -1.974504e-02 4.656260e-02 -5.132630e-02
<VARIANCE> 39
 2.065892e+01 2.794004e+01 7.435798e+01 4.760172e+01 7.586182e+01 6.713023e+01 4.580038e+01 5.248935e+01 5.611745e+01 4.662999e+01 4.464084e+01 2.630924e+01 8.613443e+01 5.524954e-01 8.220923e-01 2.627687e+00 1.519554e+00 2.592492e+00 3.185177e+00 2.456392e+00 2.889655e+00 3.778866e+00 2.702673e+00 2.510867e+00 1.764173e+00 4.399160e-01 7.050833e-02 1.200074e-01 3.507136e-01 2.379379e-01 3.978842e-01 5.370802e-01 4.089789e-01 5.236927e-01 6.693876e-01 4.712044e-01 5.040285e-01 3.425699e-01 5.311974e-02
<GCONST> 1.133935e+02
<TRANSP> 6
 0.000000e+00 8.275368e-01 1.724633e-01 0.000000e+00 0.000000e+00 0.000000e+00
 0.000000e+00 9.738878e-01 1.590212e-02 1.021012e-02 0.000000e+00 0.000000e+00
 0.000000e+00 0.000000e+00 9.639633e-01 3.603667e-02 0.000000e+00 0.000000e+00
 0.000000e+00 0.000000e+00 0.000000e+00 9.302158e-01 6.978423e-02 0.000000e+00
 0.000000e+00 0.000000e+00 0.000000e+00 0.000000e+00 9.283865e-01 7.161348e-02
 0.000000e+00 0.000000e+00 0.000000e+00 0.000000e+00 0.000000e+00 0.000000e+00
<ENDHMM>
~h "COPIAR"
<BEGINHMM>
<NUMSTATES> 6
<STATE> 2
<MEAN> 39
 -7.681448e-01 -4.463705e-01 -9.037596e+00 -1.645567e+01 -4.519740e+00 1.408868e+00 -9.432631e-01 -4.622775e+00 -5.518907e+00 6.583773e-01 4.261055e+00 -1.733876e+00 6.617619e+01 6.561071e-01 3.290494e-01 4.658279e-01 -8.180173e-02 -5.882220e-01 -1.049177e-01 9.652941e-03 -7.185311e-02 -7.264626e-02 -2.186192e-01 -4.601986e-02 1.192691e-02 2.253286e-01 -2.966111e-01 5.523689e-03 3.125980e-01 4.967364e-01 9.137082e-02 -9.993408e-02 9.882437e-02 1.465742e-01 2.207565e-01 -3.206208e-02 -6.861725e-02 6.418982e-02 -3.678392e-01
<VARIANCE> 39
 5.247694e+01 3.734715e+01 4.733773e+01 5.555828e+01 7.595663e+01 4.395445e+01 4.530196e+01 5.131158e+01 4.241816e+01 4.042137e+01 5.026949e+01 3.017904e+01 9.207842e+01 3.616771e+00 2.329734e+00 4.063693e+00 8.143278e+00 6.020226e+00 2.783593e+00 2.574100e+00 2.731526e+00 3.610387e+00 2.139266e+00 2.763106e+00 2.380010e+00 6.091496e+00 3.757343e-01 4.720537e-01 8.561193e-01 8.029571e-01 1.102507e+00 5.304395e-01 4.562213e-01 4.548570e-01 5.655276e-01 4.166391e-01 4.734260e-01 4.512267e-01 5.090628e-01
<GCONST> 1.305482e+02
<STATE> 3
<MEAN> 39
 -6.804807e+00 -3.239334e-01 6.575211e+00 -3.801542e+00 -7.720810e+00 -4.145935e+00 -1.482774e+00 -3.589051e+00 -2.480767e+00 -8.003303e-01 2.538543e+00 -1.152943e+00 6.151534e+01 -4.642955e-01 -3.672232e-01 2.010552e+00 4.980572e-03 -1.445905e+00 -6.354763e-01 -7.643404e-01 -3.869139e-01 -4.136352e-01 -1.046188e-01 6.239533e-02 -2.385416e-01 1.031551e+00 1.529343e-01 -8.451544e-02 -1.654568e-01 -3.929602e-01 -2.130792e-01 6.739428e-02 -6.823276e-02 -3.121010e-02 -2.188857e-02 2.038060e-02 4.632861e-02 -3.001582e-02 2.225591e-01
<VARIANCE> 39
 4.532144e+01 3.257482e+01 1.184628e+02 5.106422e+01 1.176222e+02 5.280959e+01 4.348260e+01 5.482546e+01 5.050687e+01 3.913405e+01 3.289402e+01 2.624849e+01 1.423789e+02 2.930475e+00 2.665540e+00 7.555209e+00 6.303157e+00 6.620033e+00 4.004825e+00 3.666252e+00 4.483162e+00 5.397941e+00 3.179180e+00 2.676409e+00 2.610007e+00 7.818570e+00 4.776843e-01 5.030177e-01 1.648139e+00 9.822865e-01 1.225668e+00 8.049015e-01 7.564629e-01 8.530362e-01 1.078997e+00 6.573633e-01 5.124940e-01 5.131023e-01 1.363565e+00
<GCONST> 1.395754e+02
<STATE> 4
<MEAN> 39
 -5.823801e+00 -7.529318e+00 1.077296e+01 -1.075984e+01 -2.005586e+01 -8.291877e+00 -3.015625e+00 -2.115720e-01 -2.597459e+00 -2.248145e+00 2.017771e+00 -4.467549e+00 7.458791e+01 3.673195e-01 -1.318638e+00 -2.199445e+00 -8.091095e-02 6.125066e-01 -9.942302e-02 1.327810e+00 1.671186e+00 1.004107e+00 -3.770790e-01 -9.254831e-01 -4.909087e-01 5.780435e-01 5.202843e-02 1.060190e-03 -2.039504e-01 2.542103e-01 4.351960e-01 1.258712e-01 1.103427e-01 -4.535171e-02 -4.199265e-02 -1.194537e-01 -1.899780e-01 -1.664560e-02 -1.157785e-01
<VARIANCE> 39
 4.060531e+01 6.566689e+01 8.400486e+01 5.360064e+01 5.573381e+01 4.207260e+01 6.156755e+01 1.127341e+02 5.948972e+01 4.200051e+01 5.624906e+01 2.970771e+01 7.265230e+01 2.498594e-01 9.574777e-01 1.708069e+00 1.353992e+00 3.790811e+00 1.993401e+00 2.699049e+00 2.857708e+00 2.344162e+00 3.330012e+00 3.307462e+00 1.877216e+00 2.843200e-01 5.058958e-02 1.851686e-01 3.421499e-01 1.779813e-01 3.653886e-01 3.390687e-01 5.364720e-01 7.097214e-01 3.960214e-01 5.077161e-01 4.954020e-01 3.402768e-01 4.278853e-02
<GCONST> 1.131513e+02
<STATE> 5
<MEAN> 39
 -3.671766e+00 -9.748154e+00 -3.181015e+00 -5.068432e+00 -6.934479e+00 -3.780405e+00 4.018658e+00 3.726138e+00 2.494460e+00 -4.045353e+00 -4.977834e+00 -5.351375e+00 6.764952e+01 -2.338919e-01 5.639818e-01 -8.573783e-03 4.657972e-01 7.323508e-01 3.799027e-01 -1.132899e-02 -2.457009e-01 1.110861e-01 2.062514e-01 1.613698e-01 2.512410e-01 -1.026572e+00 -7.489005e-02 7.427760e-02 1.494413e-01 -2.697335e-02 -6.741261e-02 -1.645842e-02 -3.762162e-02 -2.255132e-02 -1.140487e-02 7.310486e-02 1.349242e-01 6.335755e-02 -4.585290e-02
<VARIANCE> 39
 3.834352e+01 4.770383e+01 5.056632e+01 4.195891e+01 5.393843e+01 3.842028e+01 4.557167e+01 5.920163e+01 6.166963e+01 7.046813e+01 3.622505e+01 4.172155e+01 1.280609e+02 1.213212e+00 1.441216e+00 2.441203e+00 1.587244e+00 2.439934e+00 1.975770e+00 2.246886e+00 2.423623e+00 2.251264e+00 2.244574e+00 2.264024e+00 1.917792e+00 8.158466e-01 1.739226e-01 2.301191e-01 3.470317e-01 2.641907e-01 4.060543e-01 3.421066e-01 4.046949e-01 4.441925e-01 4.026449e-01 3.844956e-01 4.188641e-01 3.456533e-01 1.159082e-01
<GCONST> 1.157507e+02
<TRANSP> 6
 0.000000e+00 9.419492e-01 5.805082e-02 0.000000e+00 0.000000e+00 0.000000e+00
 0.000000e+00 9.203302e-01 7.966982e-02 0.000000e+00 0.000000e+00 0.000000e+00
 0.000000e+00 0.000000e+00 9.034165e-01 9.658350e-02 0.000000e+00 0.000000e+00
 0.000000e+00 0.000000e+00 0.000000e+00 8.788809e-01 1.211191e-01 0.000000e+00
 0.000000e+00 0.000000e+00 0.000000e+00 0.000000e+00 9.404238e-01 5.957620e-02
 0.000000e+00 0.000000e+00 0.000000e+00 0.000000e+00 0.000000e+00 0.000000e+00
<ENDHMM>
~h "AYUDA"
<BEGINHMM>
<NUMSTATES> 6
<STATE> 2
<MEAN> 39
 -4.855144e+00 -1.362194e+01 -7.742274e+00 -6.929299e+00 -1.513460e+00 -4.462312e-02 1.145926e+00 -1.191201e+00 1.145655e+00 -7.133680e+00 -5.263808e+00 -5.722560e+00 7.447555e+01 6.421420e-01 -3.640416e-01 4.824138e-01 -5.968949e-01 -1.693363e+00 -9.386709e-01 -4.253908e-02 5.652465e-01 7.494546e-02 -4.454588e-01 -2.036547e-01 -2.914135e-01 1.865191e+00 -2.174590e-01 5.945648e-01 5.290871e-01 1.158656e-01 -1.930773e-01 -2.442220e-01 -1.499131e-01 6.832808e-02 2.005960e-03 2.575988e-01 3.355962e-01 2.817659e-01 -6.586964e-01
<VARIANCE> 39
 3.837493e+01 4.558365e+01 5.024515e+01 5.533983e+01 6.191062e+01 7.039985e+01 6.452604e+01 6.773885e+01 6.015971e+01 6.016666e+01 3.296175e+01 5.134724e+01 9.047318e+01 1.608208e+00 5.134176e+00 3.861276e+00 2.620033e+00 2.786887e+00 4.154519e+00 3.457881e+00 3.859498e+00 2.643097e+00 3.600775e+00 2.972379e+00 3.085451e+00 8.024169e+00 1.963314e-01 4.474080e-01 2.971036e-01 4.240253e-01 4.780911e-01 5.900461e-01 6.762443e-01 7.367851e-01 4.761414e-01 5.220579e-01 4.218585e-01 4.305951e-01 6.259669e-01
<GCONST> 1.299553e+02
<STATE> 3
<MEAN> 39
 -4.439268e+00 -9.216517e-01 7.188798e+00 -6.011255e+00 -8.637968e+00 -5.977106e+00 -5.828425e+00 -1.888438e+00 -8.292165e-01 -4.214816e+00 -1.289389e+00 -3.786424e+00 6.596497e+01 -7.055221e-02 4.920224e-01 5.220917e-01 3.588320e-01 -3.544914e-02 -1.669440e-01 -7.400070e-01 -4.077287e-01 -3.672167e-01 2.841462e-02 2.331759e-01 9.479571e-02 -3.429070e-01 4.718205e-02 -1.388968e-01 -2.678549e-01 -1.579317e-02 2.037537e-01 1.196472e-01 -1.219266e-02 3.555454e-03 7.914882e-02 -9.014260e-03 -1.128354e-01 -9.044065e-02 3.539295e-02
<VARIANCE> 39
 8.833886e+01 5.380813e+01 1.213130e+02 9.831047e+01 1.211069e+02 8.736816e+01 8.934872e+01 7.760275e+01 9.610475e+01 7.015781e+01 5.038226e+01 4.135361e+01 1.332547e+02 2.495713e+00 4.101251e+00 6.085311e+00 3.379106e+00 8.868073e+00 5.991439e+00 6.381976e+00 4.937197e+00 5.025654e+00 3.744444e+00 4.169863e+00 3.042168e+00 3.431147e+00 4.196243e-01 5.679148e-01 8.112735e-01 6.856542e-01 1.906411e+00 1.229581e+00 1.067952e+00 9.819054e-01 9.989698e-01 6.796180e-01 8.252777e-01 5.562205e-01 5.294492e-01
<GCONST> 1.455490e+02
<STATE> 4
<MEAN> 39
 -4.079550e+00 -8.149378e-01 2.133494e+00 -6.688483e+00 -5.471752e+00 -8.471107e+00 -1.371075e+01 -6.346775e+00 4.239789e-01 -1.321693e+00 -1.625063e+00 -5.143555e+00 7.049718e+01 8.709943e-02 -1.857009e-01 -7.415148e-01 -4.269524e-01 3.954322e-01 2.268534e-01 5.160471e-01 4.424907e-01 7.293909e-01 2.183683e-01 -3.593821e-01 -2.190127e-01 1.853895e-02 -5.466308e-02 -5.525983e-02 4.664824e-02 4.720924e-02 -1.426923e-02 9.924369e-02 2.326329e-01 3.666797e-02 -1.006512e-01 -1.081179e-01 -1.984095e-02 1.793000e-02 -1.754430e-02
<VARIANCE> 39
 2.268823e+01 4.391714e+01 6.040171e+01 5.521900e+01 4.828744e+01 5.630827e+01 6.176344e+01 8.673081e+01 7.278265e+01 6.687028e+01 5.811625e+01 4.063884e+01 5.863825e+01 5.283010e-01 1.519360e+00 1.569982e+00 2.371945e+00 3.447808e+00 2.512303e+00 4.101297e+00 4.352810e+00 2.936827e+00 2.954936e+00 2.279548e+00 1.837701e+00 1.021828e+00 1.006894e-01 2.055570e-01 2.264570e-01 4.170002e-01 5.623949e-01 4.794689e-01 5.938026e-01 6.509351e-01 5.468573e-01 4.176214e-01 4.134071e-01 3.466672e-01 1.872620e-01
<GCONST> 1.196740e+02
<STATE> 5
<MEAN> 39
 -6.179186e+00 -7.201458e+00 -5.230335e+00 -5.821734e+00 2.191284e+00 -1.521239e+00 6.486082e-01 2.114725e+00 3.453237e+00 -2.719217e+00 -3.843361e+00 -3.778387e+00 5.961737e+01 -2.824084e-01 1.696469e-01 5.274422e-02 5.346122e-01 5.817183e-01 4.347293e-01 2.960376e-01 -2.265262e-01 -3.406332e-01 2.024328e-02 2.626376e-01 2.414008e-01 -8.113164e-01 -2.736273e-02 7.421092e-02 8.212510e-02 7.529854e-03 -7.062710e-02 -8.909922e-02 -8.577644e-02 -3.964825e-02 3.118425e-02 1.092684e-01 9.759043e-02 5.410741e-02 -3.396160e-02
<VARIANCE> 39
 2.598625e+01 4.102008e+01 6.122234e+01 6.420792e+01 6.715509e+01 4.624510e+01 7.145640e+01 5.177515e+01 5.349416e+01 9.903375e+01 6.302333e+01 5.056214e+01 1.677073e+02 5.132201e-01 1.165726e+00 1.197984e+00 1.805760e+00 1.944693e+00 1.894274e+00 2.233947e+00 2.021045e+00 2.315048e+00 2.444113e+00 2.130943e+00 1.916073e+00 6.776441e-01 6.152204e-02 1.787238e-01 1.807443e-01 2.755443e-01 2.651680e-01 3.089769e-01 3.831316e-01 3.841156e-01 3.782125e-01 3.900986e-01 3.569992e-01 3.397310e-01 6.253043e-02
<GCONST> 1.120431e+02
<TRANSP> 6
 0.000000e+00 1.000000e+00 0.000000e+00 0.000000e+00 0.000000e+00 0.000000e+00
 0.000000e+00 8.751355e-01 1.248646e-01 0.000000e+00 0.000000e+00 0.000000e+00
 0.000000e+00 0.000000e+00 9.362364e-01 5.565618e-02 8.107421e-03 0.000000e+00
 0.000000e+00 0.000000e+00 0.000000e+00 9.430807e-01 5.691931e-02 0.000000e+00
 0.000000e+00 0.000000e+00 0.000000e+00 0.000000e+00 9.365081e-01 6.349185e-02
 0.000000e+00 0.000000e+00 0.000000e+00 0.000000e+00 0.000000e+00 0.000000e+00
<ENDHMM>
~h "BLOQUEAR"
<BEGINHMM>
<NUMSTATES> 6
<STATE> 2
<MEAN> 39
 -1.593258e+00 1.027736e-01 5.679563e+00 3.293519e+00 -1.792904e+00 -8.927856e+00 -1.069445e+01 -6.027104e+00 -3.074095e+00 -5.960986e+00 -4.912497e-01 -3.113710e+00 6.287289e+01 7.977752e-01 -7.474223e-01 4.750073e-02 -4.364721e-01 -1.023326e+00 -6.920493e-01 -1.153677e+00 -1.399229e-01 3.173764e-01 2.515146e-01 2.426052e-01 -1.321512e-01 1.355749e+00 -1.472143e-01 -2.088479e-01 -2.292277e-01 -3.170346e-01 -9.420469e-02 2.801597e-01 2.488640e-01 1.721903e-01 2.534509e-01 3.393665e-01 1.037657e-01 -2.655117e-02 1.459495e-02
<VARIANCE> 39
 2.975991e+01 6.542402e+01 3.744667e+01 3.799536e+01 5.541109e+01 8.433150e+01 8.033264e+01 5.834032e+01 6.831576e+01 4.899529e+01 4.115080e+01 3.587435e+01 1.156164e+02 2.046953e+00 3.697597e+00 2.651264e+00 2.957597e+00 2.925184e+00 6.172423e+00 5.987400e+00 5.160079e+00 5.458088e+00 5.182951e+00 3.792215e+00 3.262257e+00 1.602528e+00 2.480973e-01 5.947942e-01 4.377907e-01 4.333518e-01 5.411567e-01 9.744568e-01 9.735067e-01 8.280745e-01 8.595105e-01 6.870497e-01 6.770737e-01 5.685617e-01 2.958633e-01
<GCONST> 1.331836e+02
<STATE> 3
<MEAN> 39
 -4.393437e-01 -5.062642e+00 2.443304e-01 -9.909481e+00 -8.211562e+00 -5.199419e+00 -5.267696e+00 -1.726822e+00 6.943165e-01 2.999947e+00 1.926811e+00 -3.808396e+00 6.563583e+01 -1.954776e-01 -1.629694e-01 2.463285e-01 -3.152489e-01 -4.346070e-01 -7.270343e-02 5.217314e-01 3.022671e-01 -1.663473e-01 2.712449e-02 6.501997e-02 4.101888e-02 2.235762e-01 -7.068900e-03 -3.388536e-03 2.819806e-02 8.854202e-02 3.231174e-02 -5.671762e-02 -1.446946e-03 4.067685e-02 -1.703673e-02 -1.319837e-01 -2.924909e-02 2.128874e-02 -2.301967e-02
<VARIANCE> 39
 9.688782e+01 8.144861e+01 9.212045e+01 8.418439e+01 1.295244e+02 8.906634e+01 8.290865e+01 8.137772e+01 8.003698e+01 6.070692e+01 8.151641e+01 4.877941e+01 1.278103e+02 2.550273e+00 4.524265e+00 4.706844e+00 5.965772e+00 7.361186e+00 5.272885e+00 4.555193e+00 5.160415e+00 5.930496e+00 4.475177e+00 4.340028e+00 3.812663e+00 5.460480e+00 4.263951e-01 7.515185e-01 7.217249e-01 8.925245e-01 1.113600e+00 7.691499e-01 8.064464e-01 9.694448e-01 1.151817e+00 8.385594e-01 8.115780e-01 6.945895e-01 7.073595e-01
<GCONST> 1.468503e+02
<STATE> 4
<MEAN> 39
 -4.910766e+00 -1.303397e+01 7.446604e-01 -1.071066e+01 -1.332287e+01 -7.724532e+00 1.646332e+00 3.298035e+00 -1.312311e+00 -4.919611e+00 -1.941173e+00 -4.862939e+00 7.593665e+01 9.478066e-02 -5.461643e-01 -1.185134e+00 5.382400e-02 8.481929e-01 4.048823e-01 2.148874e-01 2.884027e-01 3.436018e-01 -6.089196e-01 -6.952166e-01 -3.354981e-01 2.407554e-01 7.738713e-03 1.081836e-01 -8.479213e-03 6.725302e-02 9.353184e-02 -1.268825e-02 -1.173074e-01 -1.519778e-01 -6.380697e-02 7.807331e-02 -1.151988e-04 2.724968e-02 -1.104128e-01
<VARIANCE> 39
 4.013702e+01 6.495305e+01 8.292573e+01 6.494659e+01 8.396796e+01 4.388482e+01 5.157317e+01 7.625433e+01 6.631880e+01 5.248160e+01 5.416352e+01 4.434587e+01 7.032262e+01 1.936552e-01 8.051715e-01 1.436005e+00 1.185852e+00 2.084745e+00 1.193887e+00 1.657190e+00 2.052276e+00 1.729674e+00 1.937045e+00 2.047695e+00 1.823863e+00 2.761753e-01 3.894651e-02 1.028422e-01 1.897229e-01 1.749900e-01 3.605413e-01 2.093937e-01 2.579380e-01 2.990176e-01 2.362666e-01 2.935483e-01 3.621174e-01 2.627978e-01 3.417341e-02
<GCONST> 1.043975e+02
<STATE> 5
<MEAN> 39
 -4.709188e+00 -8.505868e+00 -3.531427e+00 -5.609607e+00 -5.894618e+00 -5.582732e+00 -1.309601e+00 5.039747e-01 1.971532e+00 -1.973435e+00 -2.635143e+00 -5.955465e+00 6.577563e+01 -1.936318e-01 8.226267e-01 4.529162e-01 1.824043e-01 2.372780e-01 1.119121e-02 -4.556742e-01 -7.240776e-01 -3.470723e-02 4.425394e-01 3.650656e-01 2.769202e-01 -8.263220e-01 1.178396e-02 5.769546e-02 1.504491e-01 -8.008043e-02 -5.049751e-02 -4.120670e-02 -9.959444e-02 -7.805235e-02 -4.690387e-02 -2.058679e-02 4.462364e-02 3.411488e-02 6.104795e-02
<VARIANCE> 39
 5.279932e+01 6.698701e+01 3.766892e+01 5.097698e+01 5.307835e+01 3.967652e+01 4.647307e+01 4.295300e+01 5.161269e+01 6.740205e+01 4.398646e+01 5.176022e+01 1.608938e+02 1.667142e+00 1.946928e+00 2.224961e+00 1.848667e+00 2.250257e+00 2.575534e+00 3.014820e+00 3.923288e+00 2.924238e+00 2.861323e+00 2.406955e+00 2.287880e+00 1.419799e+00 3.308018e-01 3.385298e-01 3.968100e-01 3.846394e-01 4.118321e-01 5.166020e-01 5.725373e-01 6.115167e-01 5.569464e-01 5.270768e-01 4.514557e-01 4.640643e-01 2.686496e-01
<GCONST> 1.238563e+02
<TRANSP> 6
 0.000000e+00 1.000000e+00 0.000000e+00 0.000000e+00 0.000000e+00 0.000000e+00
 0.000000e+00 9.045857e-01 9.541427e-02 0.000000e+00 0.000000e+00 0.000000e+00
 0.000000e+00 0.000000e+00 9.547452e-01 4.525477e-02 0.000000e+00 0.000000e+00
 0.000000e+00 0.000000e+00 0.000000e+00 9.149070e-01 8.509304e-02 0.000000e+00
 0.000000e+00 0.000000e+00 0.000000e+00 0.000000e+00 9.168258e-01 8.317417e-02
 0.000000e+00 0.000000e+00 0.000000e+00 0.000000e+00 0.000000e+00 0.000000e+00
<ENDHMM>
~h "NAVEGADOR"
<BEGINHMM>
<NUMSTATES> 6
<STATE> 2
<MEAN> 39
 -1.883156e+00 -8.476749e+00 4.228036e-01 -8.412062e+00 -7.869493e+00 -9.583437e+00 -2.980156e+00 -3.322740e+00 -4.254098e-01 -4.032656e+00 -4.775022e+00 -4.127942e+00 6.916605e+01 1.567821e-01 -2.962182e-01 -4.906355e-01 -2.320387e-01 2.080516e-01 1.354657e-01 -1.742285e-02 1.970638e-01 3.025316e-01 -3.137686e-02 -9.946368e-02 -1.039210e-01 3.154211e-01 -1.916491e-02 -2.090631e-02 -7.115579e-03 -3.059483e-02 1.023517e-02 6.944808e-02 3.789845e-03 2.200521e-02 1.974263e-02 9.670158e-03 2.361418e-02 -1.025489e-02 8.506692e-03
<VARIANCE> 39
 5.377016e+01 8.526691e+01 8.853555e+01 8.461263e+01 9.160487e+01 6.375631e+01 7.101419e+01 7.779460e+01 8.611858e+01 8.664145e+01 5.436790e+01 4.030131e+01 1.030577e+02 1.301189e+00 3.415365e+00 3.511336e+00 2.741756e+00 3.997374e+00 3.768987e+00 3.903063e+00 4.934660e+00 4.546108e+00 4.216577e+00 3.204543e+00 2.437321e+00 2.460895e+00 2.214653e-01 4.818316e-01 4.523365e-01 4.740661e-01 6.186934e-01 5.929443e-01 6.726187e-01 8.403413e-01 7.837510e-01 6.989049e-01 5.461377e-01 4.219970e-01 3.637691e-01
<GCONST> 1.344681e+02
<STATE> 3
<MEAN> 39
 1.000328e+00 -8.970231e+00 -2.528173e+00 -5.294651e+00 -6.025314e+00 -6.832985e+00 -4.202170e+00 1.627017e+00 3.371627e+00 -1.040568e-01 -3.684967e-01 -6.175874e+00 7.024480e+01 3.431263e-02 1.303984e-01 -2.273988e-01 -2.633286e-01 6.698024e-02 1.559835e-01 2.187579e-02 -1.988747e-01 1.218703e-01 2.838136e-01 1.123078e-01 -1.048664e-01 -3.880521e-02 -4.175510e-03 4.534899e-02 2.893669e-02 -1.689003e-02 -1.305348e-02 -3.988932e-03 7.084102e-03 -5.884015e-02 -6.165146e-02 3.070195e-02 3.265622e-02 1.118623e-02 -2.499456e-02
<VARIANCE> 39
 1.313776e+01 5.817539e+01 5.015041e+01 3.114172e+01 4.447550e+01 6.473620e+01 4.341196e+01 6.168613e+01 5.622350e+01 4.238795e+01 6.071225e+01 3.208702e+01 5.712146e+01 3.940781e-01 2.230381e+00 2.310776e+00 1.687963e+00 2.021060e+00 2.791060e+00 1.897431e+00 3.415489e+00 2.416200e+00 2.199638e+00 2.950082e+00 2.091503e+00 1.337022e+00 7.001913e-02 4.246685e-01 2.831573e-01 2.788768e-01 2.879306e-01 3.784304e-01 3.325954e-01 5.782425e-01 4.443713e-01 3.760914e-01 5.319350e-01 3.507531e-01 2.700348e-01
<GCONST> 1.148387e+02
<STATE> 4
<MEAN> 39
 -2.338122e-02 -6.608541e+00 -7.711761e+00 -1.551575e+01 -4.610542e+00 -1.824027e+00 -5.157192e+00 -3.978590e+00 2.693544e+00 1.889505e+00 -5.675539e-01 -6.973423e+00 6.978799e+01 6.112378e-02 2.171124e-01 -2.323906e-03 -4.044397e-02 -5.089946e-02 1.275390e-01 3.142165e-02 -1.392960e-01 -1.406222e-01 1.862969e-01 2.758361e-01 1.314690e-01 -2.303111e-01 -3.308732e-02 1.992611e-02 6.013070e-02 1.873108e-01 -2.125176e-02 -1.120444e-01 1.549715e-02 3.988621e-02 5.392152e-02 -6.595014e-02 -4.546460e-02 5.983787e-02 -7.513504e-02
<VARIANCE> 39
 4.445881e+01 5.739854e+01 3.098165e+01 6.068232e+01 4.783067e+01 4.459834e+01 5.753523e+01 5.057400e+01 8.533418e+01 7.620509e+01 6.222000e+01 3.506818e+01 5.646992e+01 1.951977e-01 7.232873e-01 5.752578e-01 1.322727e+00 8.976716e-01 1.397407e+00 1.296132e+00 1.391497e+00 1.536020e+00 1.374377e+00 1.351565e+00 1.421833e+00 2.825404e-01 3.893562e-02 1.160163e-01 1.074376e-01 2.144911e-01 1.617194e-01 2.281779e-01 2.122163e-01 2.422372e-01 2.812587e-01 2.393115e-01 2.541206e-01 2.526300e-01 5.579947e-02
<GCONST> 9.815773e+01
<STATE> 5
<MEAN> 39
 -2.321193e+00 -4.828880e+00 -3.200804e+00 -5.190919e+00 -1.953943e+00 -2.267866e+00 -1.843412e+00 -2.237271e+00 4.512881e+00 3.023011e+00 7.905970e-01 -2.773277e+00 5.930750e+01 -8.781067e-01 2.798852e-02 5.644400e-01 1.225844e+00 5.352315e-01 5.386138e-02 4.817682e-01 5.754467e-01 6.637270e-02 -3.378461e-01 -1.443986e-01 5.375336e-01 -1.122196e+00 -6.905810e-02 -6.695238e-04 1.807429e-02 -1.321822e-01 6.561404e-02 9.888471e-02 3.482142e-02 4.336299e-02 -6.857169e-02 7.148537e-03 1.748615e-02 -1.922797e-02 4.191206e-03
<VARIANCE> 39
 4.906654e+01 6.021893e+01 5.032038e+01 6.888375e+01 6.034201e+01 5.671430e+01 5.488659e+01 7.027525e+01 6.506486e+01 4.494325e+01 4.571553e+01 3.791348e+01 1.198823e+02 2.241189e+00 2.335069e+00 2.887072e+00 4.138519e+00 3.086100e+00 3.525526e+00 3.170956e+00 4.031704e+00 3.806738e+00 3.176720e+00 2.722350e+00 2.609742e+00 1.026531e+00 3.658133e-01 3.860509e-01 4.792671e-01 6.543115e-01 5.616143e-01 5.442837e-01 5.459075e-01 7.692315e-01 6.256269e-01 6.054181e-01 5.085990e-01 4.896388e-01 1.850197e-01
<GCONST> 1.287720e+02
<TRANSP> 6
 0.000000e+00 1.000000e+00 0.000000e+00 0.000000e+00 0.000000e+00 0.000000e+00
 0.000000e+00 9.555011e-01 3.106691e-02 1.343201e-02 0.000000e+00 0.000000e+00
 0.000000e+00 0.000000e+00 9.590540e-01 3.990560e-02 1.040403e-03 0.000000e+00
 0.000000e+00 0.000000e+00 0.000000e+00 9.279978e-01 7.200222e-02 0.000000e+00
 0.000000e+00 0.000000e+00 0.000000e+00 0.000000e+00 8.946812e-01 1.053189e-01
 0.000000e+00 0.000000e+00 0.000000e+00 0.000000e+00 0.000000e+00 0.000000e+00
<ENDHMM>
~h "ABAJO"
<BEGINHMM>
<NUMSTATES> 6
<STATE> 2
<MEAN> 39
 -3.833440e+00 -1.032818e+01 -1.079560e+01 -8.015515e+00 6.726978e-01 4.209489e-01 -9.732605e-01 -6.044533e+00 1.833005e+00 -2.757047e+00 -5.613052e+00 -5.126724e+00 6.868227e+01 7.264551e-01 -8.566684e-01 -5.980971e-01 -9.132882e-01 -1.169237e-01 3.232895e-01 -1.420474e-01 -3.203922e-01 -8.847275e-02 -1.895716e-01 -4.274522e-01 -6.959064e-01 1.639657e+00 -9.274954e-02 6.662784e-02 7.365078e-02 3.590015e-02 -4.350760e-02 1.640364e-02 7.655811e-02 5.149687e-02 1.416199e-02 3.440883e-02 8.048743e-02 1.803975e-02 -1.128763e-01
<VARIANCE> 39
 4.525630e+01 5.089489e+01 7.014249e+01 7.343830e+01 5.285155e+01 6.111487e+01 6.187483e+01 5.802247e+01 4.458180e+01 5.779491e+01 5.814280e+01 3.896393e+01 1.075523e+02 1.879244e+00 4.615884e+00 3.607395e+00 3.649667e+00 3.191747e+00 2.910502e+00 3.539011e+00 3.994652e+00 3.121346e+00 4.001903e+00 4.069975e+00 3.336977e+00 7.027397e+00 2.465518e-01 6.836556e-01 5.508902e-01 6.159979e-01 5.318896e-01 4.647695e-01 5.872064e-01 6.331708e-01 5.341918e-01 6.223053e-01 6.338825e-01 5.230739e-01 9.707314e-01
<GCONST> 1.337064e+02
<STATE> 3
<MEAN> 39
 -8.969443e-01 -1.218809e+01 -9.972476e+00 -1.389668e+01 -1.058759e+00 3.810753e+00 -1.127477e+00 -6.210466e+00 5.908586e-01 -1.388575e+00 -1.983737e+00 -9.147953e+00 7.369826e+01 -5.818919e-02 1.123174e-01 -5.749888e-02 6.751507e-02 1.520166e-01 7.802175e-02 1.134424e-01 -1.631442e-01 -7.413133e-02 -2.339626e-03 3.232795e-02 7.853605e-03 -6.423021e-02 -6.842803e-02 1.564532e-01 6.799556e-02 1.116803e-01 1.034046e-01 -5.792936e-02 -2.701367e-02 1.679711e-02 1.437370e-02 4.530291e-02 4.392107e-02 7.897941e-02 -1.594718e-01
<VARIANCE> 39
 3.098318e+01 5.002796e+01 4.046163e+01 5.701379e+01 4.667992e+01 6.242213e+01 5.793398e+01 4.600363e+01 4.468232e+01 4.976855e+01 6.384932e+01 4.222391e+01 6.631340e+01 5.438025e-01 1.786960e+00 8.903078e-01 1.304158e+00 1.811741e+00 1.569271e+00 1.458189e+00 1.475813e+00 1.391666e+00 1.562717e+00 2.080358e+00 2.014364e+00 9.934639e-01 1.014561e-01 3.165538e-01 1.745079e-01 2.362148e-01 2.738147e-01 2.991003e-01 2.783153e-01 2.866667e-01 2.599874e-01 2.691830e-01 3.578610e-01 3.907184e-01 1.903576e-01
<GCONST> 1.086246e+02
<STATE> 4
<MEAN> 39
 -9.000947e+00 -3.097729e+00 -8.953451e+00 -9.811123e+00 6.754831e+00 5.410969e+00 3.385693e-01 -3.435540e+00 -1.057380e-01 2.852247e-01 1.869104e-01 -3.456508e+00 6.380948e+01 3.330821e-02 8.127246e-01 1.803380e-01 -1.911981e-01 -3.248131e-01 -8.557233e-02 1.273127e-01 2.553886e-01 -1.931288e-01 -5.396675e-02 2.917338e-01 4.329191e-01 -6.408063e-01 1.164629e-01 -7.131683e-02 -3.219771e-02 -1.152257e-01 -1.952948e-01 -2.264785e-02 7.916806e-03 -6.719662e-03 -1.342300e-02 -4.240675e-02 -3.374225e-02 -2.751044e-02 8.941400e-02
<VARIANCE> 39
 4.829303e+01 4.554900e+01 4.544484e+01 7.286765e+01 7.230653e+01 5.854100e+01 4.210655e+01 4.392431e+01 4.952774e+01 4.539468e+01 4.469454e+01 3.620396e+01 1.015215e+02 3.697049e+00 1.870589e+00 1.964090e+00 3.395694e+00 5.345881e+00 2.902404e+00 2.746530e+00 2.892781e+00 2.770472e+00 3.036498e+00 2.533975e+00 1.992313e+00 1.045043e+00 4.122952e-01 2.967113e-01 3.216454e-01 4.407056e-01 5.607237e-01 4.623974e-01 4.659816e-01 4.896662e-01 4.742974e-01 4.636139e-01 4.315875e-01 3.448958e-01 1.219083e-01
<GCONST> 1.231115e+02
<STATE> 5
<MEAN> 39
 -1.114447e+00 2.962940e+00 -5.402016e+00 -1.061046e+01 -2.863799e+00 1.005941e+00 2.915720e+00 -2.420173e+00 -2.354923e+00 -4.285826e+00 -3.305876e-01 -1.683297e+00 6.073675e+01 -4.904831e-01 -1.791995e-01 4.463122e-01 8.957579e-01 3.428547e-01 -6.331727e-02 1.539174e-01 2.165983e-01 1.878241e-01 4.530615e-02 -1.105549e-01 -5.047860e-02 -5.169538e-01 -1.598786e-01 -7.605736e-02 3.341488e-02 1.661617e-01 1.868652e-01 5.009498e-02 -1.562595e-02 2.334885e-02 6.319170e-02 7.710738e-02 4.562503e-02 1.058967e-02 -7.005930e-02
<VARIANCE> 39
 3.235139e+01 2.405218e+01 4.061576e+01 6.777059e+01 4.229075e+01 3.548026e+01 2.732541e+01 3.618098e+01 2.981133e+01 3.308277e+01 2.929391e+01 2.385446e+01 6.230993e+01 7.745658e-01 7.954447e-01 1.267632e+00 2.171222e+00 1.757656e+00 1.413876e+00 1.445383e+00 1.635400e+00 1.518009e+00 1.610707e+00 1.577361e+00 1.354244e+00 3.899076e-01 1.402340e-01 1.399913e-01 2.155176e-01 3.564739e-01 3.474264e-01 2.726730e-01 2.839479e-01 3.105433e-01 2.927388e-01 3.150889e-01 2.899067e-01 2.610308e-01 5.993295e-02
<GCONST> 1.019885e+02
<TRANSP> 6
 0.000000e+00 9.037240e-01 9.627596e-02 0.000000e+00 0.000000e+00 0.000000e+00
 0.000000e+00 8.943053e-01 1.056947e-01 0.000000e+00 0.000000e+00 0.000000e+00
 0.000000e+00 0.000000e+00 9.338562e-01 6.614383e-02 0.000000e+00 0.000000e+00
 0.000000e+00 0.000000e+00 0.000000e+00 9.349428e-01 5.337904e-02 1.167814e-02
 0.000000e+00 0.000000e+00 0.000000e+00 0.000000e+00 9.232575e-01 7.674252e-02
 0.000000e+00 0.000000e+00 0.000000e+00 0.000000e+00 0.000000e+00 0.000000e+00
<ENDHMM>
~h "ESCAPE"
<BEGINHMM>
<NUMSTATES> 6
<STATE> 2
<MEAN> 39
 -5.743376e+00 -2.768729e+00 6.664502e+00 -9.953019e+00 -1.521029e+01 -1.022180e+01 7.706202e-01 -5.604355e-01 2.280988e-01 8.420302e-01 1.085794e+00 -2.512657e+00 6.551366e+01 -2.130095e-01 5.964534e-01 1.232940e-01 -2.243039e-02 -1.345764e-01 -7.125201e-01 1.533950e-01 -1.340982e-01 -1.750401e-01 -1.297364e-01 1.030763e-01 6.020144e-02 1.116725e+00 -4.152479e-01 1.971339e-01 -3.203720e-01 2.590546e-01 6.390549e-01 2.360516e-01 1.404555e-01 8.655997e-02 7.490895e-02 -1.324534e-02 6.485155e-02 1.221009e-01 -3.249675e-01
<VARIANCE> 39
 8.558053e+01 6.672329e+01 9.128423e+01 9.106293e+01 1.641545e+02 8.540154e+01 6.151494e+01 1.097221e+02 5.008574e+01 4.980473e+01 4.007700e+01 3.602588e+01 1.508410e+02 5.741579e+00 5.269220e+00 5.170269e+00 6.607831e+00 1.767258e+01 5.241301e+00 4.030664e+00 3.948752e+00 3.616096e+00 3.419838e+00 3.172767e+00 3.163522e+00 7.665581e+00 6.050286e-01 7.287726e-01 5.683890e-01 8.594740e-01 1.777951e+00 7.905318e-01 6.212763e-01 5.901364e-01 6.331317e-01 6.189906e-01 5.416142e-01 5.305031e-01 8.464759e-01
<GCONST> 1.443772e+02
<STATE> 3
<MEAN> 39
 -1.945461e+01 2.733902e+00 -6.780595e-01 -1.876488e-01 8.801649e-01 -7.268214e+00 3.361351e+00 1.267814e+00 1.293999e+00 -1.314826e-01 2.282186e+00 1.278037e+00 6.238812e+01 4.818645e-02 -7.134507e-01 -5.683455e-01 2.457199e-01 2.624203e-01 1.053755e-01 -4.233643e-02 2.229389e-01 1.253755e-01 2.002249e-02 -1.016228e-01 1.153033e-01 -3.620715e-01 3.444745e-01 -2.893567e-01 5.287141e-02 -1.142244e-01 -3.414823e-01 -1.334263e-01 -1.220711e-01 -7.600475e-03 -7.007488e-02 -4.318434e-02 -1.298731e-01 -1.053815e-01 2.543324e-01
<VARIANCE> 39
 4.858601e+01 4.204563e+01 3.092137e+01 3.975517e+01 4.625653e+01 4.596733e+01 3.790244e+01 4.365416e+01 3.078891e+01 2.538366e+01 2.351193e+01 2.298954e+01 1.170517e+02 4.731264e+00 3.340629e+00 2.131105e+00 2.133652e+00 4.084976e+00 3.834142e+00 2.638905e+00 2.820680e+00 2.391962e+00 2.213230e+00 2.354558e+00 1.899801e+00 4.967551e+00 5.900025e-01 5.870767e-01 3.588760e-01 4.232129e-01 5.909787e-01 7.710104e-01 5.287066e-01 5.594088e-01 4.521495e-01 4.527391e-01 4.753061e-01 4.024397e-01 8.305746e-01
<GCONST> 1.246295e+02
<STATE> 4
<MEAN> 39
 -4.943241e+00 -9.948356e+00 -5.082614e+00 -5.465886e+00 -4.568796e+00 -5.445867e+00 5.615419e-01 6.995696e-01 1.283830e+00 -3.081994e+00 -4.006278e+00 -5.155711e+00 6.737543e+01 3.552638e-01 4.457779e-02 4.017887e-01 -2.709880e-01 -5.487500e-01 -4.216506e-02 -1.467679e-01 -6.464683e-02 -6.308209e-02 4.933323e-02 5.554850e-02 -1.303666e-01 1.583118e-01 -8.620691e-02 1.140374e-01 6.533761e-02 1.033004e-02 3.176538e-02 7.290778e-02 4.898705e-02 -5.562287e-02 8.584986e-03 5.177737e-02 5.997917e-02 2.520631e-02 -1.465705e-01
<VARIANCE> 39
 4.386032e+01 6.082813e+01 6.357455e+01 5.050996e+01 6.554837e+01 6.485227e+01 5.040332e+01 5.213322e+01 4.165272e+01 4.585170e+01 4.460935e+01 4.808983e+01 1.305131e+02 2.872584e+00 3.659579e+00 3.501461e+00 3.617900e+00 5.562196e+00 4.736547e+00 3.060630e+00 3.455089e+00 3.138417e+00 3.230950e+00 3.702101e+00 3.283679e+00 6.906300e+00 4.197882e-01 5.923660e-01 5.318804e-01 5.868568e-01 8.929147e-01 8.489611e-01 5.628191e-01 5.757397e-01 5.909911e-01 5.504634e-01 6.138877e-01 5.082645e-01 7.944199e-01
<GCONST> 1.347572e+02
<STATE> 5
<MEAN> 39
 -6.235340e+00 -2.539687e+00 5.089786e+00 -5.442773e+00 -1.124280e+01 -5.089933e+00 1.050285e+00 -2.725020e+00 -8.312890e-01 -3.593117e-01 3.073736e-01 -3.404091e+00 6.187003e+01 -4.170698e-01 3.002417e-01 -4.003230e-01 5.153846e-01 1.185029e+00 7.802349e-01 3.755550e-01 -5.322937e-02 1.293556e-01 -1.878842e-01 -2.204844e-01 2.549513e-02 -9.034977e-01 1.171987e-03 -5.883999e-02 -1.198482e-01 7.889582e-02 1.889308e-01 -1.759126e-02 -3.172676e-02 1.252992e-01 7.374877e-02 -5.092501e-02 5.038305e-04 5.520740e-02 -3.664774e-02
<VARIANCE> 39
 3.243784e+01 4.691420e+01 4.990535e+01 4.310786e+01 6.660291e+01 7.328883e+01 6.017165e+01 8.135239e+01 4.257862e+01 4.659572e+01 3.751188e+01 2.823836e+01 9.923994e+01 4.742299e-01 1.381001e+00 1.520000e+00 1.732404e+00 2.240546e+00 2.400254e+00 2.359053e+00 2.582077e+00 2.269645e+00 2.094253e+00 2.141558e+00 1.825699e+00 4.279039e-01 8.068407e-02 2.039259e-01 2.511194e-01 3.206159e-01 4.171117e-01 4.059137e-01 4.133473e-01 4.183731e-01 4.065003e-01 4.463978e-01 4.352880e-01 3.511185e-01 6.670318e-02
<GCONST> 1.124811e+02
<TRANSP> 6
 0.000000e+00 1.000000e+00 0.000000e+00 0.000000e+00 0.000000e+00 0.000000e+00
 0.000000e+00 9.020577e-01 9.794229e-02 0.000000e+00 0.000000e+00 0.000000e+00
 0.000000e+00 0.000000e+00 9.249915e-01 7.500853e-02 0.000000e+00 0.000000e+00
 0.000000e+00 0.000000e+00 0.000000e+00 9.581170e-01 4.188301e-02 0.000000e+00
 0.000000e+00 0.000000e+00 0.000000e+00 0.000000e+00 9.101558e-01 8.984420e-02
 0.000000e+00 0.000000e+00 0.000000e+00 0.000000e+00 0.000000e+00 0.000000e+00
<ENDHMM>
~h "FIN"
<BEGINHMM>
<NUMSTATES> 6
<STATE> 2
<MEAN> 39
 -1.794820e+01 -2.924605e+00 -5.930894e-01 4.302897e-02 -1.215845e+00 -2.922814e+00 2.524269e+00 1.694165e+00 1.993407e+00 -8.178210e-01 1.607377e+00 1.133445e+00 6.018093e+01 -5.018359e-02 -1.104598e-01 4.975234e-01 1.142833e-01 -5.072352e-01 -5.359628e-01 -7.354735e-02 -9.217111e-02 -2.961867e-01 -2.188477e-01 -6.918596e-02 -1.116845e-01 9.000942e-01 2.996833e-01 4.129686e-02 2.589317e-01 -5.895773e-02 -2.531003e-01 -1.042088e-01 -1.601361e-01 -2.114951e-01 -1.858147e-01 -4.323120e-02 3.467105e-02 -1.099886e-01 9.572700e-02
<VARIANCE> 39
 3.508879e+01 2.106782e+01 2.192477e+01 2.307411e+01 1.730679e+01 2.247482e+01 1.955416e+01 2.443776e+01 2.195760e+01 1.923032e+01 1.695530e+01 1.438038e+01 8.377715e+01 2.010255e+00 8.524358e-01 1.592541e+00 1.233856e+00 1.488411e+00 1.569231e+00 1.633189e+00 1.990451e+00 1.979240e+00 1.577109e+00 1.400658e+00 1.322667e+00 7.317542e-01 3.198662e-01 1.685131e-01 3.385763e-01 2.945459e-01 4.693947e-01 3.075371e-01 4.022827e-01 4.790472e-01 4.599271e-01 3.386746e-01 3.384932e-01 2.841577e-01 1.348076e-01
<GCONST> 1.022833e+02
<STATE> 3
<MEAN> 39
 -6.022576e+00 -2.960026e+00 1.527011e+01 -5.247253e+00 -1.948989e+01 -6.679462e+00 -3.000504e+00 -5.553179e+00 -5.964013e+00 -2.795246e+00 2.518718e+00 -3.454869e+00 6.715907e+01 1.515714e+00 5.998275e-02 2.480107e+00 -1.861972e+00 -2.843853e+00 2.938968e-01 -1.620049e+00 -1.715793e+00 -1.217241e+00 -8.243104e-02 1.121412e-01 -8.308620e-01 1.302336e+00 -5.579051e-01 7.615356e-02 -3.897780e-01 -2.156784e-01 5.050772e-01 4.827641e-01 7.997268e-02 2.135813e-01 4.328824e-01 8.117091e-02 -1.583113e-01 1.497403e-01 -2.350219e-01
<VARIANCE> 39
 7.705605e+01 4.315764e+01 1.113985e+02 8.136211e+01 2.021520e+02 6.308154e+01 5.804484e+01 8.488932e+01 4.587050e+01 5.035581e+01 5.705696e+01 2.860568e+01 1.416125e+02 4.851242e+00 3.039091e+00 6.357162e+00 4.635576e+00 1.020970e+01 5.373781e+00 4.578186e+00 6.657533e+00 4.629489e+00 3.562429e+00 4.170898e+00 2.555921e+00 3.398997e+00 6.303683e-01 4.872626e-01 8.383525e-01 7.027286e-01 1.683135e+00 6.486152e-01 7.716908e-01 9.969733e-01 6.671441e-01 5.641600e-01 5.234266e-01 4.334868e-01 4.562717e-01
<GCONST> 1.417103e+02
<STATE> 4
<MEAN> 39
 -4.943797e+00 5.909255e-01 1.449515e+01 -1.012842e+01 -1.526859e+01 -2.938040e+00 -8.594396e+00 -1.034348e+01 -5.097396e+00 -2.656352e+00 -2.802068e+00 -5.116358e+00 6.733145e+01 3.117770e-01 3.530222e-01 -7.541320e-01 6.642039e-01 9.328158e-01 6.447906e-02 2.892136e-01 2.670573e-02 2.385925e-01 -6.801397e-02 -2.881023e-01 4.812318e-02 -7.177689e-01 2.374805e-02 -3.580369e-02 -9.625808e-02 1.939826e-01 8.959608e-02 -1.164913e-01 1.166079e-01 9.851167e-02 -1.579292e-02 -4.793533e-03 6.389955e-02 2.612655e-02 -6.284935e-02
<VARIANCE> 39
 5.958371e+01 6.144033e+01 5.816379e+01 9.721940e+01 5.799926e+01 6.378987e+01 6.181178e+01 5.674270e+01 6.169479e+01 6.054856e+01 7.174123e+01 4.289315e+01 1.172551e+02 8.657814e-01 1.067101e+00 1.746699e+00 3.596877e+00 1.864047e+00 3.213606e+00 2.311617e+00 1.918468e+00 2.196790e+00 2.378609e+00 1.991086e+00 1.700130e+00 4.911469e-01 1.113429e-01 1.501631e-01 3.085001e-01 5.051644e-01 3.276398e-01 4.672261e-01 3.607338e-01 3.184916e-01 3.841404e-01 4.002948e-01 3.188945e-01 2.715537e-01 7.124200e-02
<GCONST> 1.161723e+02
<STATE> 5
<MEAN> 39
 -4.195094e+00 2.881519e+00 6.255179e+00 3.803797e-01 -3.674741e+00 -3.448602e+00 -2.580818e+00 -7.072292e+00 -3.199407e+00 -4.068595e+00 -1.738107e+00 -3.418854e+00 5.892088e+01 -3.594876e-01 2.482624e-02 -2.745125e-01 1.969535e-01 6.518927e-01 2.018540e-01 2.974883e-01 4.200266e-01 2.180249e-01 3.815552e-02 1.059235e-01 2.014270e-01 -5.093637e-01 -4.496158e-02 -6.013861e-02 -9.557903e-03 -6.957606e-02 -5.135432e-02 4.023507e-02 4.872601e-04 1.431588e-02 2.571856e-02 2.890601e-02 1.200395e-02 1.220242e-02 1.913324e-02
<VARIANCE> 39
 1.925220e+01 2.027004e+01 2.179063e+01 2.944148e+01 3.669471e+01 2.835497e+01 2.855849e+01 3.420440e+01 3.041764e+01 2.956022e+01 3.019832e+01 2.223083e+01 6.221204e+01 2.206493e-01 5.197151e-01 6.089489e-01 8.045803e-01 1.002427e+00 1.004422e+00 1.163064e+00 1.122967e+00 1.171489e+00 1.143713e+00 1.255281e+00 1.164937e+00 1.187784e-01 2.558256e-02 6.075861e-02 1.053494e-01 1.438775e-01 1.690107e-01 1.893038e-01 2.112013e-01 2.089630e-01 1.966566e-01 2.151286e-01 2.394619e-01 2.216619e-01 1.232703e-02
<GCONST> 8.360426e+01
<TRANSP> 6
 0.000000e+00 1.000000e+00 0.000000e+00 0.000000e+00 0.000000e+00 0.000000e+00
 0.000000e+00 8.980888e-01 1.019112e-01 0.000000e+00 0.000000e+00 0.000000e+00
 0.000000e+00 0.000000e+00 8.210677e-01 1.789324e-01 0.000000e+00 0.000000e+00
 0.000000e+00 0.000000e+00 0.000000e+00 9.240388e-01 6.713594e-02 8.825329e-03
 0.000000e+00 0.000000e+00 0.000000e+00 0.000000e+00 9.406562e-01 5.934384e-02
 0.000000e+00 0.000000e+00 0.000000e+00 0.000000e+00 0.000000e+00 0.000000e+00
<ENDHMM>
~h "IZQUIERDA"
<BEGINHMM>
<NUMSTATES> 6
<STATE> 2
<MEAN> 39
 -1.327068e+01 1.215787e+00 4.709279e+00 -3.165693e-01 -4.549999e+00 -3.355741e+00 1.729155e-01 -4.568999e+00 -1.313011e+00 -1.518059e+00 1.428984e+00 -9.771033e-01 6.147704e+01 -2.343908e-01 1.533837e-02 1.859045e-02 -1.173695e-01 1.716061e-01 1.184259e-01 1.335045e-01 -6.381377e-03 5.155907e-02 8.757833e-02 -2.750758e-02 9.675582e-02 -1.609006e-04 8.219141e-03 -1.133629e-02 4.218253e-02 -7.047598e-02 -3.804244e-02 -1.884004e-02 -7.458832e-02 -4.014428e-02 1.637938e-02 -8.985992e-04 -3.232069e-02 -4.334754e-04 7.504115e-02
<VARIANCE> 39
 3.659335e+01 2.618404e+01 6.462634e+01 3.292847e+01 6.265306e+01 3.626329e+01 4.709816e+01 5.084988e+01 4.339868e+01 3.016203e+01 2.462249e+01 2.519601e+01 7.541794e+01 1.785552e+00 1.547251e+00 4.613240e+00 2.324191e+00 4.425405e+00 2.174526e+00 3.502451e+00 3.496279e+00 3.248477e+00 2.060812e+00 2.055084e+00 1.967771e+00 2.632108e+00 3.138456e-01 2.643061e-01 6.917469e-01 4.018269e-01 7.421610e-01 4.176023e-01 6.099985e-01 6.055074e-01 6.016288e-01 3.901055e-01 4.038668e-01 3.717574e-01 4.157702e-01
<GCONST> 1.219088e+02
<STATE> 3
<MEAN> 39
 -1.026586e+01 -1.928726e+00 1.042420e+01 -7.911399e+00 -7.256609e+00 -5.710201e+00 -2.274714e+00 -5.499511e+00 -6.234295e-01 -1.143315e+00 -5.045072e-01 -8.546889e-01 6.264950e+01 4.325130e-01 -2.055248e-02 7.555110e-01 -2.779406e-01 -1.013752e+00 -3.307780e-01 -4.821102e-01 -3.608147e-01 -4.496476e-01 -1.788998e-01 5.767906e-02 -2.308249e-01 7.271841e-01 5.734523e-02 -1.195002e-01 -1.456794e-01 6.421531e-02 -5.821217e-02 -2.206791e-02 7.065482e-02 1.394685e-01 4.672422e-02 3.519085e-02 9.539247e-02 -7.104489e-03 -4.252772e-02
<VARIANCE> 39
 8.989811e+01 8.258311e+01 1.163357e+02 8.729330e+01 1.460324e+02 6.779396e+01 8.754977e+01 7.591653e+01 6.244685e+01 4.704883e+01 4.376397e+01 3.796734e+01 1.625888e+02 4.094356e+00 4.580522e+00 7.320189e+00 5.507094e+00 9.345291e+00 4.165203e+00 5.842582e+00 5.880471e+00 4.804151e+00 3.992146e+00 3.994713e+00 2.992518e+00 6.356639e+00 7.003808e-01 8.360174e-01 1.075413e+00 9.030057e-01 1.263234e+00 7.473448e-01 9.667661e-01 9.540116e-01 8.729291e-01 7.406976e-01 6.704601e-01 5.437548e-01 9.251193e-01
<GCONST> 1.471949e+02
<STATE> 4
<MEAN> 39
 -4.420231e+00 -6.512966e+00 4.968086e+00 -6.766980e+00 -1.338137e+01 -9.223573e+00 -5.690679e+00 -1.587738e+00 1.415226e+00 -1.647824e+00 4.968354e-02 -4.229148e+00 7.011977e+01 2.682017e-01 -2.179713e-01 -9.547347e-01 1.558872e-01 5.676280e-01 2.208833e-02 3.209693e-01 5.097954e-01 5.432179e-01 3.393078e-02 -2.805676e-01 -1.247232e-01 -1.440452e-01 -4.842889e-02 7.263215e-02 -2.014959e-02 1.957682e-02 1.538947e-01 8.261838e-02 3.899333e-02 -4.323047e-02 -2.448285e-02 -3.997363e-02 -7.194769e-02 1.744592e-02 -6.671842e-02
<VARIANCE> 39
 3.500391e+01 6.611988e+01 7.463078e+01 6.178340e+01 8.008994e+01 4.316601e+01 5.332458e+01 6.837679e+01 6.361241e+01 4.973616e+01 5.595955e+01 3.477787e+01 7.068455e+01 6.343383e-01 2.336285e+00 1.436227e+00 1.928309e+00 2.896036e+00 2.102430e+00 2.756241e+00 3.787845e+00 2.683732e+00 2.450839e+00 2.424866e+00 1.903562e+00 1.644061e+00 1.275990e-01 3.335713e-01 2.944213e-01 3.554386e-01 5.321488e-01 3.656406e-01 4.758730e-01 6.217787e-01 5.001990e-01 4.354015e-01 4.336275e-01 3.707648e-01 3.040608e-01
<GCONST> 1.207646e+02
<STATE> 5
<MEAN> 39
 -3.975810e+00 -5.318041e+00 -4.988937e+00 -3.119807e+00 6.640200e-01 -2.580615e+00 3.572965e-01 4.385357e-01 3.573793e+00 -3.200426e+00 -4.181914e+00 -4.562427e+00 6.136095e+01 -4.496239e-01 2.065084e-01 9.213579e-02 3.862921e-01 6.035334e-01 4.276139e-01 1.990565e-01 -1.200160e-01 -2.750546e-01 -1.856096e-02 2.644541e-01 2.600522e-01 -7.908604e-01 -2.889330e-02 3.294821e-02 8.750150e-02 1.541406e-02 -7.419305e-02 -4.545107e-02 -3.825998e-02 -4.179681e-03 2.831567e-02 7.623730e-02 8.880278e-02 2.453794e-02 -3.543463e-02
<VARIANCE> 39
 2.862981e+01 3.253049e+01 2.845596e+01 3.438224e+01 4.554208e+01 4.652246e+01 4.256651e+01 4.392857e+01 4.261687e+01 6.874320e+01 3.596643e+01 3.413892e+01 8.399370e+01 5.511473e-01 1.223493e+00 1.316425e+00 1.544140e+00 1.889572e+00 1.606340e+00 1.948723e+00 2.026141e+00 1.994037e+00 2.111511e+00 1.875855e+00 1.622059e+00 6.092270e-01 8.223762e-02 1.915630e-01 2.078008e-01 2.569964e-01 2.802907e-01 2.715321e-01 3.340284e-01 3.644909e-01 3.477902e-01 3.257309e-01 3.125092e-01 2.799240e-01 7.918419e-02
<GCONST> 1.060599e+02
<TRANSP> 6
 0.000000e+00 7.951858e-01 2.048142e-01 0.000000e+00 0.000000e+00 0.000000e+00
 0.000000e+00 9.569507e-01 4.304933e-02 0.000000e+00 0.000000e+00 0.000000e+00
 0.000000e+00 0.000000e+00 9.309668e-01 6.903318e-02 0.000000e+00 0.000000e+00
 0.000000e+00 0.000000e+00 0.000000e+00 9.475613e-01 5.243862e-02 0.000000e+00
 0.000000e+00 0.000000e+00 0.000000e+00 0.000000e+00 9.261613e-01 7.383871e-02
 0.000000e+00 0.000000e+00 0.000000e+00 0.000000e+00 0.000000e+00 0.000000e+00
<ENDHMM>
~h "ABRIR"
<BEGINHMM>
<NUMSTATES> 6
<STATE> 2
<MEAN> 39
 -2.354735e+00 -1.432463e+01 -8.761907e+00 -9.527713e+00 9.479680e-01 2.087078e+00 -7.268730e-01 -3.493617e+00 9.024656e-01 -4.405499e+00 -5.271408e+00 -6.952186e+00 7.385056e+01 8.045939e-01 8.230846e-02 -3.999206e-02 -3.854271e-01 -7.509414e-01 -3.448131e-01 -2.049658e-01 -4.369866e-02 2.261509e-01 3.563121e-01 9.072238e-02 -4.964533e-01 7.635151e-01 -1.474468e-01 4.493184e-01 2.768597e-01 2.693027e-01 -2.164320e-02 -1.653994e-01 -8.513592e-02 1.758664e-02 1.142625e-02 2.193614e-01 2.632425e-01 2.320943e-01 -6.053350e-01
<VARIANCE> 39
 3.136544e+01 5.522034e+01 3.955089e+01 5.042519e+01 4.548800e+01 5.574870e+01 5.441521e+01 4.105699e+01 5.119228e+01 6.731299e+01 4.214064e+01 4.755037e+01 6.648837e+01 9.186215e-01 3.731471e+00 1.632650e+00 1.903777e+00 1.607573e+00 2.090369e+00 2.149774e+00 2.183239e+00 2.045895e+00 2.837558e+00 2.636785e+00 2.157122e+00 5.712490e+00 1.778022e-01 3.866719e-01 2.483256e-01 3.004037e-01 3.632159e-01 3.201274e-01 4.097957e-01 4.373680e-01 3.933221e-01 3.933983e-01 3.324929e-01 3.541617e-01 4.196829e-01
<GCONST> 1.185737e+02
<STATE> 3
<MEAN> 39
 -8.166121e-01 -5.720556e+00 3.173858e+00 -3.326118e+00 -5.762518e+00 -6.451388e+00 -5.721471e+00 -3.813197e+00 3.396157e-01 -2.025578e-01 4.968597e-01 -2.768686e+00 6.749975e+01 -4.988435e-01 2.484951e-01 1.772259e+00 3.272175e-01 -1.025751e+00 -6.353965e-01 -4.169780e-01 -2.291101e-01 -7.416062e-01 -3.524804e-01 3.416478e-01 5.602458e-01 -5.722554e-02 -7.214471e-02 -1.500381e-01 3.828645e-02 -2.026062e-01 -1.229272e-01 1.011873e-01 5.533000e-02 1.529485e-03 -9.757917e-02 -7.641324e-02 -8.926786e-02 -1.277519e-01 1.881264e-01
<VARIANCE> 39
 3.579915e+01 5.434539e+01 8.593825e+01 6.946658e+01 8.196076e+01 5.721289e+01 4.863609e+01 4.136325e+01 4.393728e+01 4.917610e+01 4.409468e+01 3.154996e+01 7.529356e+01 1.474254e+00 3.082384e+00 2.777115e+00 4.809045e+00 6.458341e+00 4.344900e+00 4.133106e+00 3.813896e+00 3.762880e+00 3.839700e+00 3.995800e+00 2.718744e+00 3.263465e+00 2.901451e-01 5.344502e-01 4.792327e-01 7.154537e-01 1.218281e+00 8.515025e-01 7.969797e-01 6.793234e-01 6.956262e-01 7.388957e-01 7.743289e-01 4.995478e-01 5.516632e-01
<GCONST> 1.339575e+02
<STATE> 4
<MEAN> 39
 -6.869342e+00 -5.674028e+00 1.300451e+01 -9.682815e+00 -1.748619e+01 -9.697108e+00 -8.530618e+00 -8.054310e+00 -8.184766e+00 -3.488327e+00 1.054543e-02 -3.691169e+00 7.033345e+01 -1.042169e-01 1.471637e-01 -2.150261e-01 3.085896e-02 1.261611e-01 -1.101684e-01 6.895776e-02 3.020910e-03 -2.008733e-02 -4.127348e-02 -7.085366e-02 -8.467193e-02 -2.495816e-01 9.815994e-03 3.853144e-02 -2.181298e-01 1.664669e-01 2.655213e-01 -1.209585e-02 1.034402e-01 1.011027e-01 1.664700e-01 -2.980744e-02 -5.855957e-02 8.521107e-02 -1.278246e-01
<VARIANCE> 39
 3.236316e+01 4.716859e+01 8.308925e+01 1.064344e+02 4.909424e+01 4.849207e+01 3.450628e+01 7.092533e+01 4.521307e+01 4.556744e+01 6.924380e+01 3.039009e+01 5.932124e+01 4.571818e-01 8.834693e-01 1.691385e+00 2.100259e+00 2.585505e+00 1.873954e+00 1.836770e+00 2.361605e+00 2.322162e+00 2.059969e+00 2.307809e+00 1.726647e+00 5.868130e-01 8.550142e-02 1.582237e-01 2.334778e-01 3.139065e-01 4.695961e-01 3.405506e-01 3.428479e-01 4.106002e-01 4.066159e-01 3.794016e-01 4.153534e-01 2.991146e-01 9.093217e-02
<GCONST> 1.117974e+02
<STATE> 5
<MEAN> 39
 -9.903688e+00 -4.167621e-02 3.101983e+00 -7.612464e-01 -4.264553e+00 -5.806914e+00 -1.707488e+00 -2.626808e+00 -2.463056e-01 -1.873700e+00 1.156710e+00 -2.201585e-01 5.862402e+01 -1.193620e-01 2.428429e-02 -3.208261e-01 5.977662e-02 3.322546e-01 2.142783e-01 2.468312e-01 1.802942e-01 2.451491e-01 1.453149e-01 9.041670e-03 4.884979e-02 -2.637708e-01 5.611310e-02 -8.635693e-02 6.713070e-02 -9.810604e-02 -1.994749e-01 -5.501259e-02 -4.561153e-02 -1.999503e-02 -4.548265e-02 -3.323116e-03 1.019034e-02 -4.737629e-02 1.887067e-01
<VARIANCE> 39
 2.463127e+01 1.917769e+01 3.791315e+01 2.582963e+01 6.860855e+01 4.600057e+01 3.351074e+01 3.575405e+01 3.226279e+01 2.617500e+01 2.496629e+01 1.931714e+01 9.537061e+01 1.147601e+00 1.323953e+00 1.517509e+00 1.523523e+00 4.580098e+00 3.029259e+00 2.224354e+00 2.304137e+00 2.224195e+00 1.958801e+00 2.037646e+00 1.648652e+00 2.289588e+00 2.140901e-01 2.279668e-01 2.355026e-01 3.008525e-01 7.384282e-01 5.548187e-01 4.205057e-01 4.233745e-01 4.246527e-01 3.755837e-01 3.861598e-01 3.172147e-01 3.511173e-01
<GCONST> 1.131076e+02
<TRANSP> 6
 0.000000e+00 8.925593e-01 1.074407e-01 0.000000e+00 0.000000e+00 0.000000e+00
 0.000000e+00 8.986428e-01 1.013572e-01 0.000000e+00 0.000000e+00 0.000000e+00
 0.000000e+00 0.000000e+00 9.054143e-01 8.234968e-02 1.223597e-02 0.000000e+00
 0.000000e+00 0.000000e+00 0.000000e+00 9.283698e-01 4.998802e-02 2.164222e-02
 0.000000e+00 0.000000e+00 0.000000e+00 0.000000e+00 9.437523e-01 5.624763e-02
 0.000000e+00 0.000000e+00 0.000000e+00 0.000000e+00 0.000000e+00 0.000000e+00
<ENDHMM>
~h "MINIMIZAR"
<BEGINHMM>
<NUMSTATES> 6
<STATE> 2
<MEAN> 39
 -8.582155e-01 6.778517e-01 1.243833e+01 -3.289679e+00 -1.152181e+01 -4.547176e+00 -1.776609e+00 -9.262561e+00 -7.561337e+00 -9.932282e-01 5.746123e-01 -7.367313e+00 6.348805e+01 2.513648e-01 -2.108584e-01 7.270104e-01 -6.748511e-01 -8.962824e-01 1.546141e-01 -2.936200e-01 -3.105612e-01 -1.908783e-01 3.159000e-02 2.767231e-04 -1.281454e-01 9.200385e-01 -1.933881e-01 -4.895115e-02 -6.759491e-02 -1.275425e-01 1.015453e-01 1.942408e-01 7.723721e-02 1.381646e-01 1.579159e-01 4.037967e-02 7.999336e-03 1.037370e-01 -1.086476e-01
<VARIANCE> 39
 4.423097e+01 5.218388e+01 7.347227e+01 8.434296e+01 1.418327e+02 6.232328e+01 6.403216e+01 6.072720e+01 5.871280e+01 4.077130e+01 5.498879e+01 3.748514e+01 1.511911e+02 3.690784e+00 3.890933e+00 5.924726e+00 6.061500e+00 7.269681e+00 6.946694e+00 4.234255e+00 4.817928e+00 3.868084e+00 3.076319e+00 3.216655e+00 2.738218e+00 3.395248e+00 5.231038e-01 7.898841e-01 1.058170e+00 1.053145e+00 1.246699e+00 1.155200e+00 7.590004e-01 8.894519e-01 6.598549e-01 5.984050e-01 5.699065e-01 4.701949e-01 4.418229e-01
<GCONST> 1.411272e+02
<STATE> 3
<MEAN> 39
 -3.741698e+00 3.906143e-01 1.189713e+01 -9.262366e+00 -1.153525e+01 -2.373109e+00 -7.061604e+00 -1.048658e+01 -6.418482e+00 -2.231802e+00 -1.483112e+00 -6.422535e+00 6.568016e+01 -1.572313e-01 1.258437e-01 -1.008981e-01 1.058495e-01 1.425268e-01 -4.625495e-02 1.967069e-01 6.139766e-02 8.429204e-02 -6.435612e-03 5.548456e-02 1.098934e-01 -6.791855e-02 -4.328552e-02 -2.052988e-02 -1.061456e-01 1.166198e-01 1.040469e-01 -4.051348e-02 7.579742e-02 5.513154e-02 3.636566e-02 -1.399184e-02 1.760564e-02 2.567285e-02 -4.715042e-02
<VARIANCE> 39
 3.051102e+01 3.934829e+01 6.431379e+01 1.214049e+02 5.759058e+01 7.071461e+01 5.778538e+01 5.708169e+01 5.173512e+01 3.887714e+01 5.873861e+01 3.043650e+01 4.049925e+01 1.014853e+00 1.081627e+00 3.484017e+00 5.707113e+00 3.377884e+00 3.925782e+00 2.493514e+00 2.036527e+00 1.990447e+00 1.859100e+00 1.636702e+00 1.528007e+00 7.515004e-01 1.899968e-01 2.174636e-01 6.996833e-01 1.070909e+00 6.864473e-01 7.737762e-01 4.693233e-01 4.231226e-01 3.919071e-01 3.785606e-01 3.236468e-01 2.974699e-01 1.346429e-01
<GCONST> 1.201946e+02
<STATE> 4
<MEAN> 39
 -1.323843e+01 1.085958e+00 1.714973e+00 -5.273772e-01 -1.745644e+00 -3.382877e+00 3.247702e+00 -1.825396e+00 3.638102e-01 -2.078372e+00 6.557987e-01 -2.498322e-01 6.394945e+01 3.716254e-01 -7.872455e-01 -1.230793e+00 -1.594513e-01 2.575318e-01 -3.404559e-01 5.699078e-02 9.013137e-01 6.829444e-01 -2.133348e-01 -4.536275e-01 -6.094462e-02 5.524046e-01 3.785106e-01 -2.473930e-01 9.831516e-02 -3.119943e-01 -4.049791e-01 -4.502797e-02 -2.508929e-01 -3.367354e-02 -1.232744e-02 -2.331171e-02 -1.353575e-01 -2.050423e-01 2.862724e-01
<VARIANCE> 39
 5.148993e+01 2.823958e+01 4.344703e+01 4.511372e+01 4.608696e+01 3.569207e+01 3.846180e+01 4.014436e+01 3.419214e+01 2.911778e+01 2.459231e+01 2.405286e+01 6.741715e+01 5.969638e+00 1.747049e+00 3.118714e+00 2.811762e+00 5.094147e+00 2.466292e+00 3.366118e+00 2.732888e+00 2.868561e+00 2.652450e+00 2.735203e+00 2.773054e+00 1.828854e+00 5.304926e-01 3.312785e-01 4.382020e-01 3.828000e-01 5.241569e-01 4.510502e-01 5.465373e-01 5.014532e-01 4.496077e-01 4.345269e-01 4.114138e-01 4.022767e-01 2.178507e-01
<GCONST> 1.214933e+02
<STATE> 5
<MEAN> 39
 -8.083301e-01 -1.149680e+01 -1.530561e+00 -7.124239e+00 -8.892279e+00 -6.463197e+00 -3.892973e+00 -7.397810e-01 3.421394e+00 -3.829492e+00 -4.151624e+00 -5.305298e+00 7.041808e+01 9.946094e-02 -5.557948e-02 2.815813e-01 -2.026464e-04 -3.038727e-01 -1.351374e-01 -1.621990e-01 -7.045517e-02 -2.404504e-01 -1.479348e-02 1.135282e-01 -1.006986e-02 -4.610040e-02 -9.254991e-02 1.758517e-01 5.259355e-02 1.048661e-01 9.192495e-02 4.132973e-02 5.996400e-02 -1.005991e-01 -8.035060e-02 3.315038e-02 3.718943e-02 5.663282e-02 -1.476318e-01
<VARIANCE> 39
 3.867663e+01 6.715623e+01 5.884753e+01 5.959787e+01 6.472871e+01 5.003503e+01 5.391228e+01 6.111555e+01 6.911395e+01 7.691718e+01 5.121186e+01 3.810854e+01 9.136108e+01 1.498884e+00 4.482281e+00 2.155307e+00 2.668266e+00 3.881028e+00 2.506589e+00 3.348866e+00 4.006300e+00 2.893429e+00 2.906189e+00 2.632028e+00 2.331275e+00 3.314007e+00 3.148223e-01 7.202434e-01 3.895635e-01 4.639051e-01 7.524901e-01 5.177926e-01 6.133525e-01 7.212039e-01 5.101542e-01 5.482123e-01 4.871815e-01 3.951055e-01 4.946086e-01
<GCONST> 1.296434e+02
<TRANSP> 6
 0.000000e+00 1.000000e+00 0.000000e+00 0.000000e+00 0.000000e+00 0.000000e+00
 0.000000e+00 9.163961e-01 8.360392e-02 0.000000e+00 0.000000e+00 0.000000e+00
 0.000000e+00 0.000000e+00 9.619206e-01 3.807939e-02 0.000000e+00 0.000000e+00
 0.000000e+00 0.000000e+00 0.000000e+00 8.984973e-01 1.015026e-01 0.000000e+00
 0.000000e+00 0.000000e+00 0.000000e+00 0.000000e+00 9.584413e-01 4.155866e-02
 0.000000e+00 0.000000e+00 0.000000e+00 0.000000e+00 0.000000e+00 0.000000e+00
<ENDHMM>
~h "CORREO"
<BEGINHMM>
<NUMSTATES> 6
<STATE> 2
<MEAN> 39
 -2.731648e+00 -5.466571e+00 -8.669976e+00 -1.438688e+01 9.121500e-01 5.537578e-02 -5.078143e+00 -6.041394e+00 -3.548598e+00 5.066963e+00 3.552258e+00 -2.569471e+00 6.666285e+01 1.197629e+00 -1.924889e-01 -2.158923e-01 -8.151405e-01 -1.005172e+00 -5.546173e-02 -3.400131e-01 -3.442491e-01 2.225107e-01 1.858406e-01 9.805082e-02 -6.327817e-01 1.401533e+00 -9.684875e-02 2.624121e-02 4.146225e-01 5.834587e-01 -2.775350e-01 -2.039967e-01 1.170048e-01 2.334206e-01 3.865584e-01 -2.598033e-01 -1.549399e-01 -1.923501e-02 -3.066289e-01
<VARIANCE> 39
 4.152120e+01 5.089814e+01 4.839145e+01 7.632312e+01 8.797624e+01 6.503714e+01 5.931544e+01 5.581021e+01 6.911555e+01 3.592483e+01 5.522321e+01 3.687436e+01 8.551349e+01 2.370853e+00 3.164604e+00 6.424978e+00 7.878498e+00 7.990540e+00 4.021186e+00 4.068034e+00 4.806632e+00 4.902998e+00 3.090702e+00 3.436210e+00 3.470328e+00 2.945707e+00 5.062659e-01 7.171244e-01 1.352932e+00 9.250038e-01 1.858566e+00 7.744956e-01 7.225813e-01 8.385190e-01 6.874455e-01 5.442830e-01 5.933148e-01 7.077634e-01 3.576300e-01
<GCONST> 1.390443e+02
<STATE> 3
<MEAN> 39
 -2.158645e-01 -8.477693e+00 -4.525886e+00 -3.967026e+00 -7.167504e+00 -6.788454e+00 -4.661797e+00 -2.371189e+00 4.088737e+00 1.590020e+00 3.200182e-01 -4.879896e+00 6.840135e+01 -9.915436e-02 -4.556362e-01 7.042427e-01 6.069627e-01 -6.937536e-01 -6.399093e-01 -7.623937e-05 6.392340e-01 2.342008e-01 -4.394040e-01 -2.814874e-01 1.327794e-01 8.603033e-02 -4.175904e-02 4.226390e-02 9.181736e-02 -1.754964e-01 -2.668692e-02 7.947052e-03 3.429336e-02 4.336442e-02 -1.645356e-01 1.060289e-02 8.482736e-02 5.307227e-02 2.135479e-02
<VARIANCE> 39
 3.038610e+01 6.131915e+01 4.908044e+01 5.991251e+01 6.133385e+01 5.056733e+01 4.676954e+01 5.146207e+01 4.740368e+01 4.255390e+01 5.379111e+01 3.327724e+01 7.581940e+01 1.219704e+00 1.411232e+00 1.792870e+00 3.434292e+00 2.943023e+00 2.239892e+00 2.596420e+00 3.010461e+00 3.263091e+00 2.978813e+00 2.644765e+00 2.556346e+00 1.094216e+00 2.115199e-01 2.659025e-01 2.781718e-01 4.657072e-01 5.015489e-01 4.097863e-01 4.515080e-01 5.088304e-01 5.594531e-01 5.195239e-01 4.779256e-01 4.489670e-01 1.770876e-01
<GCONST> 1.205447e+02
<STATE> 4
<MEAN> 39
 -2.902079e+00 -1.038494e+01 4.275721e+00 -7.918885e+00 -1.562513e+01 -1.148890e+01 -2.254882e+00 3.539512e+00 5.622576e-01 -1.952494e+00 -7.413037e-02 -2.931815e+00 7.032286e+01 -7.167568e-02 3.445186e-01 -1.235881e-01 -2.078827e-01 4.791957e-01 1.373084e-02 2.201476e-02 1.312180e-01 -6.591219e-02 1.356822e-01 -5.344356e-02 -4.885199e-02 -2.194527e-01 7.337981e-02 6.226895e-02 -2.489931e-01 4.377985e-02 2.562861e-01 1.540964e-01 -9.446996e-02 -1.839748e-01 1.431100e-01 1.369187e-01 -1.086175e-01 -1.241446e-01 -8.753911e-02
<VARIANCE> 39
 2.892113e+01 6.221601e+01 4.238221e+01 6.532783e+01 5.436631e+01 4.346067e+01 4.237283e+01 5.794144e+01 7.374582e+01 4.431933e+01 3.922296e+01 2.107467e+01 7.173454e+01 3.344368e-01 4.953712e-01 1.458616e+00 1.056165e+00 1.815158e+00 1.240519e+00 1.436288e+00 1.600647e+00 2.041610e+00 1.943257e+00 1.641698e+00 1.242185e+00 2.038229e-01 3.747154e-02 8.562158e-02 1.148361e-01 1.537936e-01 1.670734e-01 2.263148e-01 2.095025e-01 2.996307e-01 2.974806e-01 3.067694e-01 2.413486e-01 2.041251e-01 1.757445e-02
<GCONST> 9.726552e+01
<STATE> 5
<MEAN> 39
 -1.400399e+00 -3.882447e+00 -3.275063e+00 -9.618349e+00 -2.778049e+00 -7.959449e-01 -5.450513e-01 -1.322352e-01 9.528548e-02 -4.211999e-01 -1.543072e+00 -3.398329e+00 5.745485e+01 -3.388004e-01 6.181397e-01 -1.561167e-01 2.290015e-01 6.673295e-01 7.927926e-01 6.042730e-01 -3.661594e-01 -2.069160e-01 3.477767e-02 9.679562e-02 1.517747e-01 -9.158125e-01 -9.505629e-02 -5.196681e-02 1.506273e-01 8.065943e-02 -1.162179e-01 -7.297260e-02 6.866466e-02 8.480976e-02 -2.527059e-02 -6.532995e-02 7.028116e-02 9.856389e-02 -1.221143e-02
<VARIANCE> 39
 5.396568e+01 7.338024e+01 4.574726e+01 7.214484e+01 6.361893e+01 6.898350e+01 7.213004e+01 6.906470e+01 7.231064e+01 5.441870e+01 4.889841e+01 3.324859e+01 1.967349e+02 9.045717e-01 1.257523e+00 2.095013e+00 2.465960e+00 2.458085e+00 3.290071e+00 2.949151e+00 3.382855e+00 3.235128e+00 2.863431e+00 2.550824e+00 2.373662e+00 4.911674e-01 7.846431e-02 1.497895e-01 2.337649e-01 3.155140e-01 3.540480e-01 4.716657e-01 4.990121e-01 5.413876e-01 5.978101e-01 5.154813e-01 4.859023e-01 4.361942e-01 3.464477e-02
<GCONST> 1.191538e+02
<TRANSP> 6
 0.000000e+00 1.000000e+00 0.000000e+00 0.000000e+00 0.000000e+00 0.000000e+00
 0.000000e+00 8.645431e-01 1.354569e-01 0.000000e+00 0.000000e+00 0.000000e+00
 0.000000e+00 0.000000e+00 9.253897e-01 7.461030e-02 0.000000e+00 0.000000e+00
 0.000000e+00 0.000000e+00 0.000000e+00 9.079477e-01 9.205230e-02 0.000000e+00
 0.000000e+00 0.000000e+00 0.000000e+00 0.000000e+00 9.274897e-01 7.251029e-02
 0.000000e+00 0.000000e+00 0.000000e+00 0.000000e+00 0.000000e+00 0.000000e+00
<ENDHMM>
~h "CORTAR"
<BEGINHMM>
<NUMSTATES> 6
<STATE> 2
<MEAN> 39
 1.140274e+00 -4.153352e+00 -1.022772e+01 -1.290810e+01 -3.991669e+00 2.638479e-01 -2.850775e+00 -3.922396e+00 -3.162102e-01 3.264174e+00 3.538406e+00 -4.479668e+00 6.523193e+01 5.433164e-01 -1.161728e-01 9.833718e-02 5.152455e-02 -3.629881e-01 -3.922227e-01 -3.539368e-01 -1.319585e-01 3.474749e-01 -1.023092e-02 -1.846581e-01 -2.893169e-01 6.760579e-01 -1.560175e-01 7.506716e-02 2.549121e-01 2.561034e-01 4.512309e-02 -5.732382e-02 5.093843e-02 9.554964e-02 1.351004e-01 -5.898811e-02 -7.586699e-02 4.456220e-02 -2.677647e-01
<VARIANCE> 39
 8.470042e+01 6.375423e+01 6.396740e+01 8.860378e+01 9.797230e+01 7.458168e+01 6.567267e+01 6.632337e+01 8.286534e+01 6.673910e+01 7.463441e+01 6.589911e+01 1.708409e+02 3.776528e+00 3.511210e+00 5.420367e+00 7.282023e+00 6.804275e+00 4.677246e+00 4.270283e+00 4.509789e+00 4.949632e+00 3.823411e+00 4.092306e+00 4.188449e+00 5.666827e+00 4.416495e-01 5.593269e-01 1.026031e+00 8.898808e-01 1.207139e+00 8.715771e-01 7.450070e-01 7.482228e-01 8.178260e-01 7.160485e-01 7.116978e-01 7.211406e-01 5.178846e-01
<GCONST> 1.447613e+02
<STATE> 3
<MEAN> 39
 -7.578896e+00 -2.602949e+00 -3.396617e+00 -4.293861e+00 -8.460033e-01 -3.651329e+00 -2.374682e+00 -1.330663e+00 3.521227e+00 4.283100e-01 -1.988268e-01 -2.807734e+00 6.210626e+01 -9.319303e-02 -4.373771e-01 -5.849040e-02 -2.598253e-01 -2.110282e-01 3.604209e-02 2.656986e-01 3.505724e-01 6.624963e-02 -2.914931e-01 -4.803096e-01 -2.161843e-01 4.495585e-01 8.271007e-02 -1.493104e-01 -1.039554e-01 -6.644861e-02 -4.719830e-02 8.544982e-02 5.147084e-02 -2.024441e-02 -6.293663e-02 -3.702851e-02 -6.832830e-03 -4.263818e-02 1.063330e-01
<VARIANCE> 39
 3.622911e+01 3.309250e+01 2.604153e+01 3.693624e+01 3.377194e+01 4.302047e+01 4.534346e+01 3.326478e+01 3.265206e+01 3.811740e+01 4.568381e+01 3.393427e+01 1.636510e+02 3.199853e+00 2.849408e+00 2.484363e+00 2.621497e+00 3.079691e+00 3.558372e+00 3.304436e+00 2.329112e+00 2.644146e+00 3.160924e+00 3.427507e+00 3.543737e+00 8.193420e+00 5.063075e-01 3.359584e-01 3.690845e-01 5.127819e-01 6.093809e-01 6.999630e-01 6.354338e-01 4.509446e-01 5.002919e-01 5.568961e-01 5.850433e-01 5.962132e-01 1.108193e+00
<GCONST> 1.272818e+02
<STATE> 4
<MEAN> 39
 -3.386304e+00 -1.374538e+01 -8.664747e+00 -7.318739e+00 -4.236379e+00 -3.692815e+00 2.058534e+00 1.266030e+00 1.765072e+00 -5.484858e+00 -6.818730e+00 -6.562515e+00 7.350462e+01 3.222148e-02 3.637664e-02 -3.560359e-02 3.676749e-01 5.132801e-02 8.075082e-02 3.009110e-01 -1.624338e-02 -2.307853e-01 -6.283066e-02 1.429499e-01 4.620065e-02 -3.886829e-01 -1.964107e-02 2.491875e-01 1.083031e-01 5.493391e-02 -5.481888e-02 -9.920003e-02 -8.784138e-02 4.876194e-03 1.084488e-01 1.619066e-01 1.280984e-01 6.076770e-02 -1.750552e-01
<VARIANCE> 39
 3.358841e+01 4.889910e+01 4.073983e+01 4.480962e+01 3.568604e+01 3.913924e+01 5.253959e+01 5.549163e+01 5.824335e+01 7.342423e+01 4.159704e+01 5.994859e+01 9.899098e+01 2.570830e-01 7.503215e-01 5.866790e-01 8.283591e-01 1.200202e+00 1.285524e+00 1.332946e+00 1.399002e+00 1.409753e+00 1.254548e+00 1.239144e+00 1.088227e+00 2.744274e-01 7.118744e-02 1.300364e-01 1.258481e-01 1.896036e-01 2.287702e-01 2.245982e-01 2.443575e-01 2.773552e-01 2.609255e-01 2.549928e-01 2.680458e-01 2.373374e-01 6.267299e-02
<GCONST> 9.854093e+01
<STATE> 5
<MEAN> 39
 -4.369618e+00 -6.517223e+00 -2.708889e+00 -3.573798e+00 -2.190210e+00 -2.414275e+00 2.236111e+00 2.537463e+00 2.648615e+00 -1.168954e+00 -2.990142e+00 -4.877881e+00 6.309337e+01 -5.295294e-01 7.727832e-01 5.769145e-01 4.568051e-01 5.680617e-01 2.698448e-01 7.867637e-02 5.089862e-02 -2.975422e-02 2.554722e-01 4.752941e-01 3.547458e-01 -1.205145e+00 -7.880177e-02 -6.329203e-02 -1.014526e-02 -1.595740e-02 7.809322e-02 6.505758e-02 1.092601e-02 -2.911499e-02 -4.472642e-02 -4.861793e-02 -9.875793e-03 3.777489e-02 3.900762e-02
<VARIANCE> 39
 3.143375e+01 4.871371e+01 5.057461e+01 3.376622e+01 4.617515e+01 5.147792e+01 4.659919e+01 4.522276e+01 3.987759e+01 6.704372e+01 4.202270e+01 4.644797e+01 1.270760e+02 1.640072e+00 2.020868e+00 2.686348e+00 1.814036e+00 2.591253e+00 2.642630e+00 2.593724e+00 2.631711e+00 2.619217e+00 2.794880e+00 2.282831e+00 2.178572e+00 1.234203e+00 2.485749e-01 3.042384e-01 4.273512e-01 2.969558e-01 4.417974e-01 4.822186e-01 4.935371e-01 4.776302e-01 4.690742e-01 4.982866e-01 4.169281e-01 3.958553e-01 2.122427e-01
<GCONST> 1.201823e+02
<TRANSP> 6
 0.000000e+00 1.000000e+00 0.000000e+00 0.000000e+00 0.000000e+00 0.000000e+00
 0.000000e+00 9.370465e-01 5.580968e-02 7.143810e-03 0.000000e+00 0.000000e+00
 0.000000e+00 0.000000e+00 9.440767e-01 5.592334e-02 0.000000e+00 0.000000e+00
 0.000000e+00 0.000000e+00 0.000000e+00 8.982663e-01 1.017336e-01 0.000000e+00
 0.000000e+00 0.000000e+00 0.000000e+00 0.000000e+00 9.075155e-01 9.248449e-02
 0.000000e+00 0.000000e+00 0.000000e+00 0.000000e+00 0.000000e+00 0.000000e+00
<ENDHMM>
~h "ARRIBA"
<BEGINHMM>
<NUMSTATES> 6
<STATE> 2
<MEAN> 39
 -3.080932e+00 -1.088072e+01 -4.880701e+00 -4.560460e+00 -5.784901e+00 -4.272537e+00 8.545444e-02 -1.167427e+00 2.837401e+00 -3.395747e+00 -5.024721e+00 -5.105567e+00 7.221761e+01 2.093592e-01 1.230670e-01 7.250084e-01 2.067740e-01 -7.933890e-01 -6.515667e-01 -2.706094e-01 9.304153e-02 -1.759875e-01 -5.546359e-02 1.880821e-01 1.471125e-01 1.981214e-01 -8.217230e-02 9.826501e-02 1.940285e-01 3.203338e-02 -7.779571e-02 -3.115038e-02 -4.173097e-02 -2.676447e-02 -1.152829e-01 3.136569e-02 1.291760e-01 6.827436e-02 -1.416153e-01
<VARIANCE> 39
